1609 100
the 0.269790 0.186155 0.006520 -0.071846 0.262727 -0.228723 0.127882 -0.296583 0.219432 -0.301492 0.084513 0.137106 -0.193068 0.310427 -0.133362 0.636005 -0.170413 -0.126765 0.051607 -0.158270 -0.392371 0.105726 0.310582 0.185649 -0.345711 -0.194117 -0.110455 -0.177258 -0.477568 -0.199893 -0.276359 0.131300 -0.147862 -0.096491 0.205016 0.138109 -0.322820 0.060614 -0.148997 0.112980 0.038309 -0.055825 0.005085 -0.002606 0.263554 0.017913 -0.176512 -0.115696 0.112122 0.240934 -0.063775 0.405007 -0.000737 0.361670 0.278025 0.011532 0.116808 -0.071873 0.182463 -0.103518 0.388483 0.060811 -0.380394 -0.188750 0.072896 -0.281323 -0.053341 0.184876 0.330035 -0.362237 -0.034572 -0.201725 -0.019408 0.082151 -0.281622 0.211634 -0.042847 0.160259 -0.131605 -0.001919 -0.141428 0.073405 0.113658 -0.020384 -0.281164 0.090362 -0.096646 0.098622 0.463683 -0.256691 -0.240858 -0.237711 -0.384230 -0.191456 0.385192 -0.407260 -0.096674 0.170370 -0.110400 0.193903
to 0.259569 0.291680 -0.071487 -0.243763 -0.174989 -0.115817 0.237938 -0.650190 0.253237 -0.035534 -0.041528 -0.230099 -0.275540 -0.374345 -0.000519 0.366765 0.031960 -0.251502 -0.008890 0.140774 -0.279684 -0.176654 0.465963 0.137111 0.129232 -0.276583 -0.159823 -0.119723 -0.380554 -0.075679 -0.208924 0.289151 -0.236377 -0.129940 0.130789 0.034936 -0.468596 0.312846 -0.078439 0.011233 0.029549 0.191445 -0.359963 0.072392 -0.163317 -0.025016 -0.301384 -0.068531 0.214567 0.142969 -0.000350 -0.222800 -0.237536 -0.322304 0.373033 -0.199142 0.119096 -0.167844 -0.232377 -0.264472 0.419130 0.021317 -0.251464 -0.031327 0.116300 0.207328 -0.122498 -0.286260 0.047431 0.109229 -0.245797 -0.027614 -0.112015 0.453166 -0.406346 -0.071824 -0.098745 0.077175 -0.141201 -0.278837 -0.018265 -0.259293 0.020164 0.116686 0.126985 0.030438 0.084358 0.172263 -0.010143 -0.249189 -0.136262 -0.003232 0.050417 -0.203775 0.244989 -0.072255 -0.046605 0.573844 -0.123838 0.203124
space -0.044949 0.281846 0.404700 -0.356900 -0.200966 -0.180711 0.049681 -0.381701 0.212654 0.037987 0.203938 0.233439 -0.621229 0.246172 -0.129714 0.118806 -0.018475 0.036959 -0.110861 0.367101 -0.136398 0.367055 0.467464 0.013093 0.211785 -0.237046 0.226164 -0.029206 -0.219245 0.343459 -0.118494 0.057379 0.023376 -0.069959 -0.187623 0.199323 -0.230317 0.453731 -0.350371 -0.221365 -0.024279 0.162033 -0.303380 0.105206 0.365280 -0.092432 0.010050 0.271257 0.412480 0.310930 0.304157 -0.217919 0.108179 -0.394445 0.039493 0.203008 -0.326148 0.066581 0.207704 -0.119294 0.054588 0.115832 -0.077646 0.182023 0.055388 -0.410904 -0.069804 0.476321 -0.004485 -0.276590 -0.501159 -0.129218 -0.213931 -0.109004 -0.094673 0.092786 -0.426291 -0.238298 -0.002292 -0.295284 -0.003979 0.099106 -0.021547 0.085194 0.088556 0.319701 -0.288114 0.338063 0.008565 -0.220852 -0.133110 0.048690 0.218986 -0.281521 0.159626 -0.417602 -0.390204 0.587487 0.133215 0.074263
and 0.472488 0.137621 0.274778 -0.048343 0.332031 -0.058135 0.316338 0.072072 0.031628 0.084354 -0.063686 -0.228984 -0.402032 -0.128274 -0.002146 0.555855 0.037367 -0.128291 -0.375559 0.012082 -0.085125 0.195516 -0.032777 0.180431 0.109591 -0.226428 -0.152103 0.266886 -0.585728 -0.472811 -0.316878 0.248531 -0.326074 0.315865 0.323591 0.100322 0.078532 0.615045 0.004648 -0.163138 -0.102370 -0.081622 -0.070140 -0.068299 -0.131965 -0.079310 0.057759 0.124782 0.210652 0.082905 0.031852 0.040656 -0.473866 0.200093 -0.284104 -0.199783 0.058672 0.030190 -0.120722 -0.414930 0.309546 0.270193 -0.264319 -0.051051 0.479068 -0.161728 -0.047525 0.076256 -0.026630 -0.098770 -0.298740 -0.024139 0.113688 -0.388114 -0.012507 0.037377 -0.248453 0.035489 -0.102027 0.033764 0.052325 -0.060014 -0.179686 -0.520114 -0.188525 0.010947 0.106319 0.281434 0.308805 0.035132 -0.265175 0.098826 -0.321082 0.240475 0.197008 0.035985 -0.263253 0.176301 0.120024 0.005728
that 0.237619 -0.014620 -0.294351 -0.031280 0.330873 -0.202835 0.216289 -0.304523 -0.216764 -0.001600 0.292619 -0.251751 -0.477735 -0.279308 -0.067807 0.204223 0.141244 -0.070131 -0.144384 0.099096 -0.176003 0.366442 0.444288 0.155566 -0.043098 -0.392086 0.381527 -0.221865 -0.362344 0.028869 -0.428490 -0.062265 0.080499 0.189052 -0.138527 0.173434 -0.269651 -0.087008 0.167854 -0.286757 0.136317 0.123094 -0.289104 -0.022822 0.302412 0.123124 -0.312561 0.006070 0.250907 0.170315 -0.139319 -0.107772 0.049100 -0.044346 0.296333 0.082011 0.089683 -0.002772 0.387621 -0.136244 0.043960 0.296759 0.083484 -0.128263 0.244670 -0.299135 0.300701 0.388610 0.153622 -0.345836 -0.265946 0.240985 -0.332477 0.239010 -0.218946 -0.154043 -0.330934 0.042657 -0.088661 -0.287955 0.234199 -0.193619 0.061638 -0.002268 -0.093301 0.115595 -0.242441 -0.159116 -0.232286 -0.383363 -0.231674 -0.056259 0.012356 -0.061798 0.374088 -0.070542 -0.093175 0.430291 0.218556 -0.005621
we 0.385379 0.204469 0.022200 -0.369704 -0.425176 0.418380 -0.024425 -0.148722 -0.008124 -0.013668 -0.228779 -0.170544 -0.296239 -0.082312 -0.176885 0.094904 -0.054930 -0.225841 0.325459 0.103780 -0.472852 0.006276 0.065697 0.179369 -0.265252 -0.057509 0.313770 -0.133553 -0.499754 0.182558 -0.307867 -0.167720 -0.346136 0.328572 -0.263062 0.164434 -0.479986 0.618800 -0.125506 0.134576 0.051591 -0.423316 -0.200040 0.078401 -0.011769 0.221003 0.049770 0.148979 0.118513 0.065885 0.190736 0.140338 -0.215191 -0.368373 0.267977 -0.161159 -0.237648 -0.043931 0.518032 -0.265920 -0.025074 0.261148 -0.430320 0.307156 0.040986 -0.237221 -0.130400 0.123729 -0.073760 0.031804 -0.096983 -0.355725 -0.318948 -0.011787 0.099593 -0.073572 -0.037789 -0.269215 0.120083 -0.013231 0.272735 0.017386 0.131137 -0.427982 -0.259022 0.105727 -0.002726 0.357887 -0.095842 -0.281135 -0.532933 0.217753 -0.066280 -0.080307 0.537774 -0.316071 -0.332169 0.098340 0.167524 0.055377
is -0.006139 0.378513 0.193373 0.040275 -0.101807 -0.223430 0.290120 0.209133 0.331976 0.125233 0.045395 -0.164298 -0.305555 -0.105645 -0.123447 0.090917 -0.327392 0.162969 -0.017767 -0.044281 -0.111510 0.085332 0.265776 0.079992 0.069451 -0.303603 0.317183 -0.057004 -0.670835 -0.232306 -0.277841 0.139173 0.122586 -0.143906 0.060407 0.182408 -0.458739 -0.087352 0.172756 -0.133443 0.121877 0.067976 -0.297356 -0.011469 0.241172 -0.535736 0.125938 0.349541 0.398817 0.095936 0.202836 0.272561 -0.155290 -0.301441 0.367721 -0.037445 -0.109017 -0.096305 0.037927 0.108649 -0.045829 0.284851 -0.206128 0.064967 0.365228 -0.764628 0.256716 0.453352 0.289702 -0.111701 0.234086 -0.068902 -0.398495 -0.218061 -0.485575 -0.075263 -0.187485 -0.145733 0.497529 -0.144489 0.392345 0.106380 -0.346136 -0.314497 -0.254660 -0.467200 -0.118797 -0.232445 -0.050002 -0.147134 -0.202622 -0.388952 -0.283871 -0.206170 0.072174 -0.051669 -0.011415 0.181682 -0.268776 0.412982
of 0.498459 -0.196920 -0.258342 -0.062878 -0.209704 -0.002551 0.329070 -0.285830 0.208782 0.148376 0.196017 -0.348975 -0.099647 0.223066 -0.563318 0.216336 -0.383109 -0.163046 -0.014970 0.150632 -0.214680 0.377166 0.410853 0.104344 0.274969 -0.347779 -0.008210 -0.229953 -0.613798 -0.202571 -0.371496 0.199885 -0.284008 -0.028236 0.475448 0.247237 -0.016553 0.351680 0.031564 -0.200087 -0.069895 0.049186 0.114009 0.075384 -0.068220 0.042931 0.109307 0.413804 0.364640 0.157205 -0.130508 0.425959 -0.126684 -0.193329 0.272710 -0.297676 0.283146 0.101927 -0.005361 -0.102259 -0.224795 -0.102561 -0.022286 -0.126909 0.315743 -0.599288 -0.084770 0.235535 -0.059030 -0.084163 -0.008777 0.309733 0.335014 -0.205649 0.084365 -0.074328 -0.008959 0.085825 -0.493746 0.224770 -0.271905 -0.308853 0.534521 0.020104 -0.318527 0.051138 -0.643288 -0.081949 0.023808 -0.364216 -0.464458 -0.078727 -0.230095 0.089672 -0.208770 -0.245944 0.200159 0.354635 0.020754 0.023681
exploration -0.010360 0.249690 0.221710 -0.443981 -0.105786 -0.230591 0.266180 -0.149420 0.059266 -0.180220 0.590339 0.286552 -0.432426 0.028919 0.055675 0.298440 -0.448600 0.307446 -0.358542 0.185376 -0.062837 0.025487 0.479090 0.337607 0.037552 -0.486670 0.491588 -0.204102 -0.284512 0.222543 -0.429245 -0.132824 -0.193864 -0.131665 -0.374670 0.228188 -0.261643 0.201368 -0.149616 -0.410047 -0.019584 0.331913 -0.494263 -0.244303 0.167448 0.093216 0.069222 0.116930 0.183168 -0.130141 -0.088726 0.225738 -0.027383 -0.214364 -0.107514 0.140153 -0.045014 -0.028899 0.323775 -0.392202 0.355127 -0.043658 -0.249153 -0.001821 -0.120782 -0.189444 0.036191 0.377005 0.009133 -0.026099 -0.347135 0.137888 -0.739075 -0.118626 0.142379 -0.156714 -0.502362 0.022357 0.085399 -0.054356 0.396508 -0.387344 -0.117256 0.267608 -0.442938 -0.060041 -0.177986 0.249470 0.074535 -0.234572 -0.245319 -0.090025 -0.061463 0.062443 0.118398 -0.436702 -0.005940 -0.069314 -0.233675 0.317512
in 0.655981 0.195948 0.457127 -0.037012 -0.018905 -0.205761 -0.095993 -0.215343 0.222139 0.646558 0.342813 -0.238062 -0.139019 -0.521707 -0.139887 0.354480 0.205372 -0.111217 0.164355 -0.020520 -0.046864 0.339237 0.129083 0.498382 -0.000850 0.262269 0.038147 0.024153 -0.498249 -0.101111 -0.199539 0.219852 -0.299050 -0.113773 0.126287 -0.065138 -0.707703 0.112025 0.014778 0.030340 -0.160849 0.107916 0.042588 -0.394014 -0.058969 -0.109138 0.224006 -0.052764 -0.052751 0.030280 -0.118563 0.096390 -0.063960 0.187119 -0.017602 -0.057921 0.238273 0.143258 0.192136 -0.510775 -0.073665 -0.183395 -0.100140 -0.030506 0.356952 -0.152143 -0.039616 0.144899 0.356568 0.199608 -0.171435 0.316168 -0.217277 0.179428 -0.285783 0.069929 -0.541366 0.574723 0.043829 -0.066451 -0.259133 0.054902 -0.575278 0.264522 -0.335111 0.027164 -0.126462 0.204554 -0.143786 0.364479 -0.146223 0.238157 -0.119628 -0.148665 0.115816 0.023189 0.104376 0.189057 -0.233274 -0.033432
it 0.215664 0.164104 0.151277 -0.154467 0.015022 -0.312147 -0.077532 -0.131010 0.092482 0.238637 0.255253 0.094467 -0.185870 0.008981 0.026491 0.227146 -0.272465 -0.185240 -0.196791 0.081147 -0.025456 0.412162 0.425737 0.076558 0.055343 -0.564307 0.148247 0.069169 -0.081892 0.153601 -0.253933 0.116395 -0.374826 -0.194386 0.203123 -0.104577 -0.253452 0.320226 0.078449 -0.111197 -0.027690 0.411509 -0.396260 -0.205544 0.185315 0.114724 -0.062621 0.154259 0.154556 0.246963 0.151817 0.160645 0.034094 -0.055957 0.124831 -0.056391 -0.118084 -0.259514 0.410833 -0.329285 0.448438 -0.025552 -0.207093 0.098180 0.058213 -0.110539 0.089963 0.226180 0.037906 0.313661 -0.403320 -0.030263 -0.572044 -0.066328 0.020070 0.128698 -0.328337 -0.049772 0.226608 -0.115075 0.148742 -0.100881 0.015445 -0.073128 -0.289407 0.006442 -0.048873 0.066321 0.432532 -0.345126 -0.045302 -0.275684 -0.092124 0.189708 0.139709 -0.375913 -0.031380 0.120086 0.299966 0.064146
people 0.426024 -0.041032 0.196851 -0.223730 -0.174387 -0.220714 -0.468280 -0.133484 0.503855 0.042261 0.042705 -0.394313 -0.291082 -0.019333 -0.028878 0.113514 0.007786 -0.122706 0.207418 -0.176795 -0.297698 0.401258 -0.067769 0.079975 -0.079201 -0.268341 0.323707 0.120563 -0.281941 -0.005337 -0.229632 0.253209 -0.372228 -0.289035 0.127369 -0.051823 -0.534522 -0.093664 -0.132116 -0.020557 -0.041236 -0.043624 -0.761642 -0.155347 -0.298941 0.102598 -0.114988 -0.258271 -0.033966 0.020182 -0.119801 0.136269 -0.302356 -0.289199 -0.366649 -0.034091 0.155422 -0.058529 0.073821 -0.332173 0.134357 0.339907 -0.424687 0.180059 0.467425 -0.253478 -0.126273 0.317011 0.259837 0.177825 -0.188990 -0.022598 -0.302306 0.378127 -0.432997 -0.358754 -0.186858 -0.180978 -0.122912 0.135150 0.182283 0.202623 0.116666 -0.171257 -0.145778 0.210956 -0.277187 -0.165255 -0.063701 -0.360002 -0.178007 -0.159568 -0.024721 0.195426 0.351189 0.036231 -0.234360 0.391367 -0.276064 -0.405839
on 0.433768 0.359459 -0.071532 -0.396979 -0.019901 0.406529 0.063106 -0.394713 -0.034087 0.064826 0.143802 -0.044304 -0.283639 -0.335972 -0.581168 0.236022 -0.103117 0.113728 -0.063091 -0.066072 -0.142634 -0.193421 0.181606 0.253069 -0.255444 0.248551 0.045602 -0.333768 -0.331908 -0.060128 -0.403630 -0.178939 -0.349139 0.092170 -0.298828 0.321962 -0.646521 0.158135 -0.144417 -0.346482 0.364752 0.071883 -0.124096 -0.054592 -0.024464 -0.329370 0.082286 0.025926 0.281275 0.492333 0.264698 -0.009874 -0.063173 -0.201049 0.312102 -0.246072 0.418261 -0.165285 -0.280102 0.216780 -0.162719 0.017049 -0.441797 0.268652 0.038649 -0.127281 0.010375 0.209085 -0.438691 -0.427622 -0.179664 0.022085 -0.288636 0.184552 -0.137356 -0.210580 0.169581 0.050106 -0.131138 0.098806 -0.434614 -0.237838 -0.232274 -0.044609 -0.237169 0.064303 -0.222320 0.105614 -0.394373 -0.489600 -0.500338 -0.068049 -0.275912 -0.035982 0.284045 -0.388047 -0.154660 0.535227 -0.355693 -0.051139
a 0.267649 -0.134911 -0.106251 0.236235 -0.023309 0.073359 -0.043991 -0.045317 0.286184 0.621745 0.188428 -0.293298 -0.268717 0.203813 0.240115 -0.165166 0.105918 0.343007 0.269394 -0.099551 -0.435830 0.382450 0.348550 0.571426 0.386519 -0.389242 -0.145133 -0.173235 0.331646 0.464612 -0.363679 0.048687 -0.198784 -0.471584 -0.065142 -0.360687 -0.437837 0.168018 0.317896 -0.417615 -0.167674 -0.015454 -0.206061 0.374362 0.207647 -0.175076 -0.214438 0.007548 0.470046 0.051753 0.259421 -0.105243 0.260481 -0.036121 0.084056 -0.141425 0.210143 -0.288038 0.211610 -0.524999 0.223847 -0.088165 -0.386156 0.003834 0.250676 0.026477 0.214304 0.031685 -0.057474 -0.571192 -0.025572 -0.031598 -0.277360 0.251512 -0.322768 0.533731 0.199957 0.171666 0.073984 0.126277 0.111746 0.106409 0.087394 -0.381182 -0.117634 0.011697 0.012541 -0.074761 0.388403 0.039255 -0.742165 -0.017830 -0.023567 0.070613 -0.212326 -0.204563 0.185908 0.666911 -0.609477 0.303900
for 0.476758 -0.123520 0.175470 -0.149327 -0.031852 0.018134 0.178880 -0.017058 0.301257 0.232154 0.090704 -0.511613 -0.215766 -0.193783 -0.276943 -0.032478 -0.180598 -0.011961 0.117324 0.024240 -0.203058 -0.102195 -0.163454 0.410076 -0.124120 -0.085384 -0.201916 -0.185574 -0.784991 0.028051 0.073947 0.102725 -0.330363 0.032915 -0.288241 0.298861 -0.124546 0.201599 0.021287 -0.271763 0.144662 0.222119 -0.382801 -0.024434 0.418205 -0.149761 -0.081932 0.008342 0.213432 0.306065 0.003426 0.146790 -0.156472 -0.118579 -0.226171 -0.568578 0.129700 -0.029004 -0.360672 -0.246769 0.328909 -0.070247 -0.029280 0.323641 0.418099 -0.044570 -0.048202 0.307774 -0.164768 -0.146675 -0.344255 0.202210 0.015614 0.216665 -0.215774 -0.117522 -0.010879 0.076248 -0.263461 -0.120677 0.208631 0.088062 0.041944 -0.076209 -0.085527 0.020866 -0.311304 0.646060 0.270925 -0.166800 -0.280337 -0.205105 -0.450620 -0.370229 0.453301 0.083553 0.221094 0.176013 -0.175436 0.014761
money 0.462466 0.041390 0.097144 -0.326023 -0.019291 0.083784 -0.345785 -0.200556 0.275642 0.506586 -0.052037 -0.367350 -0.102416 -0.075222 -0.071716 0.098796 -0.231731 0.005918 0.108523 -0.152511 0.043137 0.114012 0.161814 -0.079904 -0.119453 -0.169484 0.093878 -0.351722 -0.470460 0.081472 -0.197199 -0.011369 -0.350986 -0.230943 -0.112147 0.105887 0.018741 0.444276 -0.209559 -0.092582 0.046525 0.420813 -0.420472 0.306204 0.106871 -0.219343 0.116530 -0.124320 0.660018 0.194274 0.006220 0.198999 0.065680 -0.219091 -0.014715 -0.222977 0.288109 0.251338 -0.179479 -0.496101 0.346847 -0.038646 -0.392160 0.254280 0.261183 0.270596 0.220444 0.372777 0.107274 -0.041537 -0.084789 -0.541921 -0.383999 0.199450 -0.064616 -0.594580 -0.001259 -0.422127 0.265423 0.026759 0.173975 0.064664 0.310301 0.267509 -0.069947 0.262927 -0.512080 0.044266 -0.262835 -0.558852 -0.150723 0.067186 -0.237634 0.086659 0.590225 -0.241176 0.250956 0.736881 -0.115225 -0.297919
can 0.107669 0.014121 -0.146426 -0.417086 -0.187624 -0.235534 0.023523 0.020629 0.048562 -0.254445 0.107253 -0.232795 -0.136110 -0.265176 0.195770 0.032313 -0.194423 0.108540 -0.182417 0.413962 -0.318532 0.262987 0.088624 0.223034 0.271902 -0.316448 -0.277963 0.163940 -0.216203 -0.154095 -0.018626 -0.024501 -0.382376 0.272221 0.535087 0.108593 -0.679369 0.052501 -0.132885 -0.681534 -0.208434 -0.348631 -0.367805 0.058354 0.159787 0.251043 0.067851 0.481629 -0.008501 0.505005 -0.218476 0.021083 -0.428704 -0.131155 0.312586 -0.158426 -0.064155 -0.184542 -0.202344 -0.113521 0.590738 0.275017 -0.262350 0.130982 0.076061 -0.436771 0.263495 -0.114623 -0.029633 -0.201600 0.237460 -0.115012 -0.351139 -0.039944 0.089336 -0.387604 -0.073577 0.198219 -0.057166 -0.510571 -0.262037 -0.005912 0.071771 -0.046049 -0.041135 -0.059269 0.045071 0.086694 0.154324 -0.221249 -0.271193 -0.429958 -0.061246 0.055264 0.276053 -0.219352 -0.156947 0.702960 -0.102362 -0.127064
earth 0.488184 0.410246 -0.094129 -0.065748 -0.086150 -0.138089 -0.063570 -0.330678 -0.174936 0.029709 -0.060915 -0.087629 -0.040235 0.165377 -0.107854 -0.198676 0.017258 -0.250339 -0.159436 0.052790 -0.343913 -0.006133 0.611036 -0.057495 0.346798 -0.231258 0.331781 0.388958 -0.123022 -0.319229 -0.319824 -0.109339 -0.339960 0.762356 0.222745 -0.025569 -0.361444 0.120588 -0.242905 -0.258882 0.083534 -0.265713 -0.349128 -0.193890 -0.246917 -0.048159 0.046089 0.175297 -0.049598 0.430116 -0.230548 -0.013627 -0.293642 0.138004 0.332975 0.160331 0.228463 -0.194550 0.025673 -0.547704 -0.006151 0.519886 -0.274453 0.258965 0.159658 -0.553952 0.391647 0.019896 -0.241199 -0.074927 -0.063590 -0.213533 -0.705376 -0.062260 -0.158834 -0.349560 -0.097674 -0.626024 0.223169 0.054383 0.133945 -0.173513 0.027151 0.272828 -0.444406 -0.088331 0.278327 -0.344947 -0.348875 -0.456283 -0.138992 -0.318134 -0.073170 -0.113914 -0.026775 -0.419718 -0.045033 0.391136 -0.030681 -0.325501
i 0.140463 -0.034275 0.309582 -0.535679 -0.300770 0.155351 -0.254263 -0.419230 0.388558 0.327954 -0.204714 0.153311 -0.269679 0.089711 -0.020658 0.218748 -0.329671 0.415514 0.446879 0.498211 -0.452623 0.248942 0.215665 0.269486 -0.423295 0.074641 0.592126 0.026388 -0.552960 0.104916 -0.336500 0.273021 0.136193 -0.441197 -0.309859 0.257245 -0.538298 0.241434 0.118439 -0.257049 -0.071159 0.362236 -0.487544 -0.110584 0.318999 -0.102597 0.087052 -0.355819 0.152935 -0.062095 0.140087 -0.044849 -0.145056 -0.121693 -0.041059 0.120974 0.197636 0.435015 0.364698 -0.178291 0.680777 -0.034987 0.179595 0.341241 0.239783 -0.204745 -0.107233 0.417873 0.265628 -0.132082 0.124349 -0.143310 -0.655358 -0.233987 0.317509 -0.299755 -0.269270 -0.212243 0.017284 0.127413 0.367811 0.091006 -0.138258 0.029188 -0.279345 0.143051 -0.099880 -0.286035 -0.262805 -0.635410 -0.391629 0.192759 0.004142 0.190660 0.092206 -0.740376 -0.266496 -0.065802 0.095808 0.043035
be 0.639121 0.194447 0.090926 -0.385255 -0.257534 0.009298 0.194566 -0.306942 0.179115 0.227448 0.001553 0.025741 -0.612852 -0.181038 -0.219666 0.053888 0.215792 0.346587 0.028079 -0.007045 0.393723 -0.179469 0.680791 0.113876 -0.369906 -0.218694 0.151266 -0.036551 -0.256852 -0.047878 -0.142878 -0.145777 0.091557 0.166525 -0.503988 0.485957 -0.519875 0.010758 -0.185500 -0.255507 -0.205695 0.307156 -0.309237 0.008567 0.231482 -0.735656 -0.011678 0.401301 0.198757 0.138327 -0.181988 -0.170057 -0.020619 -0.134414 0.240886 -0.186407 0.104425 0.082057 0.131775 -0.291765 -0.155788 0.015105 -0.147082 0.251473 0.242601 -0.195171 0.520880 0.083440 0.418906 -0.481117 -0.359675 -0.139065 -0.452995 -0.289082 -0.039685 -0.337909 -0.159344 -0.468118 0.581107 0.120909 -0.113217 0.077401 -0.041641 0.243272 0.332650 0.200406 -0.029441 0.023850 0.027482 -0.278094 -0.246601 -0.349900 -0.155384 0.365310 0.132606 -0.001073 -0.148459 0.030133 -0.364009 -0.238916
they 0.333031 -0.310333 -0.162073 -0.234291 -0.222047 0.139434 -0.046052 -0.412229 0.220050 -0.044853 -0.054037 -0.247707 -0.489127 -0.283724 -0.235486 -0.039855 0.153897 -0.131456 -0.075660 0.140000 -0.370025 -0.135929 0.275651 0.194060 -0.079224 -0.246945 0.200519 -0.206394 -0.370068 0.160460 -0.207904 0.160414 -0.502305 0.088602 0.243575 0.084705 -0.468196 0.350721 0.151513 0.173070 -0.081232 -0.112636 -0.346184 0.236456 0.114405 0.351096 -0.157504 -0.231247 0.125526 0.211689 -0.010219 -0.070739 -0.338790 -0.094447 0.038697 -0.224807 -0.074318 0.003107 0.301426 -0.106109 -0.065310 0.303731 -0.455957 0.138402 0.299156 -0.128062 0.015360 0.184357 0.064066 0.507429 -0.272715 -0.014796 -0.143089 -0.150699 -0.189402 -0.044832 -0.280046 -0.183564 -0.180506 0.154045 0.289676 0.032757 0.329605 -0.063399 -0.166339 0.136038 -0.179415 0.137681 0.034154 -0.384357 -0.382985 0.077190 -0.009568 0.170607 0.473626 -0.230484 -0.211779 0.213981 0.312467 -0.225998
should 0.174663 0.127453 0.404630 -0.677502 0.163996 0.174305 -0.040088 -0.441281 0.111618 0.108877 0.172125 0.113545 -0.223191 -0.299033 0.295126 0.236196 -0.417015 0.218833 0.052329 0.343869 -0.155371 0.120590 0.435090 0.000398 0.039875 -0.102335 0.394962 -0.083442 -0.821115 0.190871 -0.224400 0.039430 0.302906 -0.169670 0.057101 0.166324 -0.438397 0.218833 -0.395426 -0.370687 0.108936 0.096658 -0.354961 0.082993 0.200173 -0.193254 0.216339 0.171865 0.329133 0.010023 -0.244322 0.036708 -0.234808 -0.519970 -0.099267 0.213507 0.056555 0.494483 0.068828 -0.080751 0.352036 -0.071534 -0.167709 0.366392 -0.196521 -0.274432 -0.133140 0.109649 0.320613 0.063998 0.011007 -0.775666 -0.260553 0.013480 0.032934 -0.391039 -0.456973 -0.104508 -0.303086 -0.430404 -0.128867 -0.156905 -0.223283 0.197521 -0.091306 0.298044 -0.342185 0.207424 -0.319772 -0.780965 -0.245199 -0.071884 0.030059 -0.436529 0.528375 -0.762524 -0.111731 0.501100 -0.545013 0.281556
because 0.014010 0.453888 -0.142689 0.011980 -0.077005 -0.222499 0.207233 -0.106267 -0.005963 0.227383 -0.009063 -0.180881 -0.527297 -0.266030 0.131773 0.251245 -0.134632 -0.096078 -0.061318 0.092761 -0.069915 0.340839 0.332626 0.114153 0.191114 -0.208615 0.452048 -0.071129 -0.094231 -0.123103 -0.261672 0.220434 -0.205568 -0.087255 0.018171 0.229034 -0.140355 0.379581 0.340490 -0.156696 0.081149 0.185541 -0.485886 -0.238760 0.111926 0.075716 -0.124902 -0.128970 0.397635 -0.051475 -0.113452 -0.114632 -0.205954 -0.029882 -0.071970 -0.110013 0.047907 -0.207432 -0.103909 -0.399308 0.293693 0.399675 0.144175 0.253682 0.439101 -0.242403 -0.260405 0.468981 0.230655 -0.142621 -0.079313 -0.029831 -0.302329 0.224760 -0.111560 -0.111404 -0.652550 -0.020657 -0.179240 -0.002220 0.360836 0.119012 -0.010576 -0.197052 -0.092646 0.106226 -0.027425 0.013255 -0.144776 -0.140407 -0.211793 -0.099322 -0.148914 -0.364029 0.203442 0.009489 -0.157613 0.265365 0.014824 0.329785
are 0.323038 0.240138 0.181203 -0.178660 -0.037608 -0.350418 0.309302 0.284511 -0.067005 0.081149 0.026926 -0.225358 -0.375214 -0.186245 -0.333934 0.000692 -0.216638 0.304573 -0.009516 0.059846 -0.078402 0.225498 0.223726 0.058787 0.381793 0.051103 0.260140 0.139854 -0.472370 -0.568082 -0.244411 0.040038 -0.329846 -0.269510 -0.109477 0.164170 -0.160707 -0.161919 0.002840 0.142307 -0.238008 -0.377883 -0.531993 -0.290206 0.213068 -0.560173 0.323897 0.114434 -0.005529 0.175035 -0.179229 0.079896 -0.197460 -0.034259 -0.154143 -0.024237 0.208359 -0.094606 -0.146295 -0.076649 -0.351208 0.183036 -0.419330 0.306034 0.501026 -0.773188 -0.037681 -0.051699 0.095298 -0.025018 -0.074848 0.041818 -0.104159 -0.140394 -0.169590 -0.559345 -0.402917 -0.132412 -0.015551 0.080678 0.269170 0.347886 -0.410505 0.115711 -0.549213 -0.192608 -0.388708 -0.048003 0.085429 -0.621482 -0.328437 -0.064570 -0.143807 0.086760 0.244160 0.069054 -0.207809 0.159436 -0.141854 -0.272781
have 0.196183 0.126512 0.048473 -0.227815 0.031915 0.171846 0.149786 -0.183412 -0.444676 0.316630 -0.104693 -0.395776 -0.389677 -0.533652 -0.167978 0.000027 -0.002231 0.012458 0.060905 0.067383 -0.223682 0.347553 0.664346 -0.196672 0.158988 -0.084741 0.206486 0.275024 -0.316053 -0.126911 -0.475240 -0.136855 -0.215181 -0.029111 0.103689 0.537127 0.108143 0.242990 0.545950 0.071779 -0.473507 -0.057245 0.049546 0.154375 0.402147 -0.215414 0.184238 0.004872 -0.140703 0.001417 0.049200 -0.285644 0.119890 -0.044289 0.080357 -0.455674 -0.013741 -0.131428 -0.160504 -0.493172 0.200846 0.055212 0.162028 0.333561 0.110361 -0.485206 -0.152284 -0.137407 -0.089465 0.006189 -0.327786 0.322940 0.016354 -0.156689 -0.336596 -0.279876 -0.309805 -0.299180 -0.044820 0.232164 0.228997 0.231087 0.050460 0.099787 -0.408895 0.194491 -0.537630 0.350945 0.030476 -0.548517 -0.276353 0.091873 -0.196827 0.106932 0.225814 0.106072 -0.196292 -0.040345 0.015419 -0.540279
help 0.595389 0.391597 0.059083 -0.538870 -0.122566 -0.107182 -0.210588 -0.222541 0.035510 0.100268 0.096041 -0.352009 0.047110 -0.092677 -0.038015 0.121409 0.332675 0.012240 0.032134 -0.027981 0.014468 -0.162500 0.358789 0.237580 -0.076217 -0.204836 -0.093388 0.087202 -0.240876 -0.154205 0.109337 0.083147 -0.375968 0.174261 -0.015091 0.259063 -0.442409 0.258078 -0.092452 0.122443 -0.038931 0.288085 -0.301888 -0.138134 0.015136 0.076627 -0.100959 0.436255 0.190656 0.126358 0.133632 -0.062052 -0.293883 -0.290348 -0.220291 -0.183959 0.082157 -0.163687 0.137255 -0.396272 0.201194 0.157799 -0.266442 -0.046250 0.030461 -0.213602 0.050314 0.082345 -0.113919 -0.077789 -0.201882 -0.097826 -0.288454 0.046427 -0.182968 -0.175100 -0.070337 0.314145 -0.144792 0.058344 -0.323768 0.097394 0.008037 -0.242420 -0.063917 0.030377 -0.282221 0.380805 0.008712 -0.443509 -0.689130 -0.320331 -0.092635 0.227085 0.453195 0.034259 -0.050383 0.071248 -0.029260 -0.077345
not 0.191064 0.785366 0.181376 0.013100 -0.267276 -0.040381 -0.089918 -0.023647 -0.075486 0.192051 -0.049614 -0.047380 -0.327725 0.024544 0.052494 0.192376 -0.354799 -0.200672 0.156917 -0.082143 -0.349450 0.017567 0.142587 -0.038994 -0.011904 -0.030342 0.096221 0.102520 -0.460703 0.036136 -0.309314 0.142611 -0.145772 0.045038 -0.215170 -0.036279 -0.408932 0.138498 0.270844 -0.064865 0.149638 0.347867 -0.435508 0.115557 0.518723 -0.388297 -0.270200 -0.190879 0.047388 -0.213290 0.231596 -0.022641 -0.152945 0.162468 0.342416 -0.034025 0.000284 0.118808 0.036215 -0.130047 0.194187 0.015137 0.001502 0.066196 0.275849 -0.412575 0.051894 0.318212 0.100390 -0.011195 -0.081982 -0.268873 -0.470691 0.355785 -0.084849 0.036088 -0.529674 -0.307674 0.059573 0.150240 0.163952 0.103865 0.289050 0.223184 -0.137846 -0.120200 -0.305476 0.085390 -0.132904 -0.555951 -0.361255 0.114608 0.207355 -0.209014 0.150761 -0.424047 0.254475 0.118337 0.253156 0.309966
think 0.060599 0.347453 0.559010 -0.279445 -0.130479 0.025811 -0.174047 -0.314208 -0.325016 0.332398 0.053731 0.144169 -0.238218 -0.271455 0.121812 0.193842 -0.275378 0.210520 0.277505 -0.083387 -0.337274 0.053719 0.365725 0.378986 -0.058461 -0.006084 0.473816 0.276073 -0.388738 -0.189381 -0.081339 -0.024626 -0.010080 -0.137882 -0.288495 0.384266 0.068275 0.494026 -0.224775 -0.817481 -0.326093 0.172318 -0.345602 0.089037 -0.025884 -0.020167 -0.040813 -0.184442 0.451799 0.040009 0.411360 0.052616 -0.153053 -0.159714 -0.105940 -0.346224 -0.043006 0.168164 -0.004351 -0.157162 0.134004 0.160657 -0.320663 0.254499 0.102852 -0.222665 -0.336362 0.288897 -0.010948 -0.417136 -0.205295 -0.216155 -0.699004 -0.066773 0.073273 -0.435740 -0.406183 -0.338285 0.140012 0.362656 0.068459 -0.068327 -0.081039 0.336676 -0.286145 -0.184338 -0.272574 0.152739 -0.207046 -0.712323 -0.415131 -0.183404 -0.173239 -0.471414 0.400112 -0.332383 0.148036 0.287225 -0.440266 0.270636
also 0.300248 0.213900 -0.025050 -0.180490 0.284201 -0.136794 0.187375 -0.178951 -0.030743 -0.022893 0.348949 -0.251201 -0.433024 -0.126884 -0.211414 0.474300 -0.082907 -0.053942 -0.270788 -0.070962 -0.165390 0.436129 0.274622 0.127335 0.083846 -0.407989 0.128515 -0.069309 -0.237448 -0.080464 -0.279327 -0.160842 -0.321362 0.218104 0.203113 0.423796 -0.168613 0.361067 -0.022957 -0.164103 -0.066850 0.274158 -0.164938 -0.180424 0.011966 0.121457 0.125983 0.282114 -0.032855 0.013697 -0.211402 0.139534 0.044667 0.217895 0.034177 -0.361139 0.064262 0.047513 -0.077873 -0.333327 0.253423 0.230256 0.020835 -0.097477 0.053655 -0.259525 -0.209982 0.164056 -0.145295 -0.170667 -0.087068 0.104340 -0.137584 0.066867 -0.051753 -0.159721 -0.466123 0.169301 -0.059436 0.027216 0.125780 0.083633 0.175776 -0.122895 -0.313016 0.232539 -0.102545 0.378435 0.053375 -0.151698 -0.234495 -0.261176 -0.293021 -0.206576 0.261890 -0.006737 -0.006831 0.103761 0.433255 -0.188832
more 0.309638 0.239031 -0.071277 0.008757 0.102261 -0.098344 -0.064747 0.080460 0.193480 -0.013907 -0.049531 0.078064 -0.595458 -0.156527 -0.300171 0.544852 -0.264032 0.010675 -0.069942 0.202757 0.126766 -0.106214 0.355427 0.600040 0.335183 -0.432317 0.211565 0.148738 -0.394850 -0.394090 0.178316 0.301857 -0.180666 0.122029 -0.162825 0.464521 -0.348348 0.119386 0.015162 -0.491328 0.258869 0.019056 0.150168 -0.115146 -0.049136 -0.197644 0.311847 0.074973 0.375681 0.217895 -0.104658 0.114129 -0.474976 -0.214793 0.042285 0.125410 -0.120443 0.063234 -0.192987 -0.455553 0.369897 -0.002808 -0.323711 0.007537 0.209705 0.044799 -0.074839 0.064187 -0.329881 0.015976 -0.042995 0.009324 -0.239246 -0.208395 -0.254260 0.040992 0.113884 -0.376545 0.080077 -0.264554 -0.027320 -0.240111 0.078640 -0.029684 -0.228801 0.000644 -0.148685 0.421875 0.435715 -0.093269 -0.489783 0.134493 0.174581 -0.086916 0.320114 -0.107627 -0.080160 0.243368 -0.075494 0.053773
so 0.340369 0.361319 0.275756 -0.189032 -0.060978 -0.309085 0.464684 -0.581441 -0.041107 0.196243 -0.095159 -0.021164 -0.476455 -0.349953 -0.134152 0.316540 -0.388023 0.017493 0.218812 -0.030611 -0.256303 -0.026282 0.425834 0.286535 0.436964 -0.118637 0.267642 -0.008327 -0.014075 -0.058945 -0.565995 -0.099600 -0.089244 -0.082097 -0.165207 0.092304 -0.410300 0.490013 0.092943 -0.134159 0.108016 0.106630 -0.306014 -0.081820 0.173185 0.019541 0.021304 0.198295 0.280116 -0.127247 -0.126146 -0.212989 -0.035615 -0.138139 0.162348 -0.179746 0.081593 0.151580 -0.010299 0.064292 0.110277 0.086772 -0.314262 -0.070561 0.315954 -0.251063 0.436253 0.275602 -0.105483 0.057998 -0.378130 -0.248710 -0.419028 0.136841 -0.202893 -0.414721 0.028104 0.028887 0.324447 0.284185 0.277941 -0.162341 -0.023460 0.085982 0.087917 -0.023478 0.272456 -0.146195 -0.311167 -0.343460 -0.413906 0.061192 0.252773 -0.120511 0.446113 0.124472 -0.218548 0.373930 0.011049 -0.021953
could 0.207089 0.016560 -0.083365 -0.429299 0.123129 0.051980 -0.022423 -0.082351 0.035787 0.024534 0.119621 -0.284137 -0.144933 -0.229888 -0.001660 0.119294 -0.239915 0.147612 0.043038 0.285517 -0.228416 -0.082758 -0.078458 0.238659 0.193228 -0.370306 -0.304583 0.178310 -0.347601 -0.018399 -0.074113 -0.082649 -0.282534 0.107163 0.295902 0.176516 -0.446158 -0.015192 -0.168653 -0.384982 -0.178974 -0.156606 -0.212223 0.114004 0.156750 -0.098312 -0.050665 0.272964 -0.018535 0.343972 -0.102830 0.030765 -0.256639 -0.198181 0.141164 -0.468426 -0.021885 -0.055909 -0.212747 -0.136559 0.592843 0.143372 -0.339996 0.124778 0.152069 -0.176581 0.137689 -0.163117 0.044799 -0.350165 0.108647 -0.300626 -0.363200 0.291063 -0.205069 -0.544708 -0.103592 0.038471 -0.204322 -0.534388 -0.156982 -0.000507 0.039557 0.119481 0.025539 0.066714 -0.190801 0.215713 0.116589 -0.199658 -0.196703 -0.364968 -0.148157 -0.030782 0.239120 -0.239369 -0.137477 0.553711 -0.309716 -0.067009
better 0.434721 0.262778 0.461121 -0.375943 0.099613 0.454614 -0.319938 -0.001763 0.052107 0.031273 -0.232487 -0.290002 -0.009290 -0.664128 -0.235674 0.396695 0.121754 -0.081187 -0.421450 0.122984 0.033351 -0.022266 0.381054 0.308443 0.059531 -0.040086 0.172137 0.453034 -0.428462 -0.065473 -0.566853 0.130373 0.076287 0.128578 -0.152324 0.541119 -0.616542 0.290715 -0.055630 -0.117317 0.089961 0.171153 -0.063443 -0.170772 0.432527 -0.346099 0.331018 0.296886 -0.192091 0.381735 -0.124156 -0.141295 -0.226364 0.120850 -0.220477 -0.031851 -0.488547 0.399480 -0.271627 -0.449109 0.454063 0.184764 -0.393331 -0.106408 0.153657 0.532046 0.211086 0.192766 -0.347586 -0.235274 -0.271883 0.036016 -0.093582 -0.107689 -0.259217 0.169527 0.294025 -0.142641 0.040562 -0.297900 0.042737 -0.407383 -0.216045 -0.230715 -0.137773 0.660552 -0.007524 0.546941 0.398029 -0.004650 -0.480031 -0.364271 0.284269 -0.265233 0.182949 -0.205009 0.251787 0.200347 0.000388 -0.269387
us 0.242366 0.252966 0.072161 -0.382474 -0.257163 0.095870 -0.234115 -0.155732 0.279767 -0.197295 0.103381 -0.081040 -0.179533 0.260863 -0.160360 0.553029 -0.056792 -0.048058 -0.017313 -0.026884 -0.624889 0.262189 0.206900 -0.068719 0.288168 -0.083262 0.070699 0.103620 -0.031813 0.101646 -0.250049 0.289494 -0.039818 0.365707 0.092889 -0.140551 -0.841210 0.195291 -0.169121 -0.173734 0.218199 -0.063354 -0.361253 -0.463619 -0.080236 0.339221 0.008314 -0.056081 0.255043 0.319288 0.382064 -0.181529 0.042561 -0.253523 0.180765 -0.072276 -0.423489 -0.110529 -0.094352 -0.525300 0.292653 0.146135 -0.640756 0.347785 0.157441 -0.110777 0.116285 0.438748 -0.228079 -0.246798 -0.091473 0.053692 -0.353603 -0.063928 -0.146785 0.287110 0.065595 -0.016318 -0.093898 -0.068407 0.104344 -0.407312 -0.094240 -0.211435 -0.243974 0.298082 0.145671 0.255340 0.134721 -0.115522 -0.049437 -0.365718 0.130174 0.382250 -0.235719 -0.237091 0.090609 0.079340 0.073088 -0.053080
this 0.173140 -0.173771 0.034065 -0.158327 -0.131350 -0.215252 0.047220 -0.235080 0.091834 -0.331229 0.330456 0.059826 -0.224392 0.193065 -0.231997 0.183750 -0.192186 -0.062262 0.288903 -0.130299 -0.391744 0.322665 0.501319 0.424412 -0.187201 -0.232608 0.337826 -0.146357 -0.173379 0.033218 -0.179476 -0.292978 0.069772 -0.188285 0.106768 0.044894 -0.274335 -0.064809 0.100613 -0.233631 0.017424 0.386439 -0.099440 0.107589 0.327614 0.239691 0.209908 -0.078441 0.047394 0.047987 -0.023528 0.141475 -0.051990 0.086989 0.064243 0.092201 0.031303 -0.168119 0.526088 -0.349024 0.383716 0.104488 -0.239304 -0.101714 0.110426 -0.091985 -0.359668 0.396425 0.335256 -0.098958 -0.268498 0.060667 -0.268935 0.090148 -0.159795 0.003189 -0.102326 0.316419 0.200273 -0.012629 -0.093256 -0.608296 0.094806 -0.044615 -0.100378 0.069246 -0.119594 -0.082566 0.479832 -0.273804 -0.404011 -0.080060 0.125567 -0.023950 0.364502 -0.494315 -0.116933 0.266995 0.082444 0.066924
our 0.148112 0.461718 0.201814 -0.052094 0.126651 -0.036733 0.183498 0.027675 0.153465 0.136349 -0.019692 0.183283 -0.144150 0.057207 -0.387384 0.663168 -0.372025 -0.270314 0.169469 -0.177495 -0.487413 0.023533 0.357065 -0.272037 -0.024076 -0.027989 0.072318 0.278845 -0.246853 -0.168309 -0.346102 -0.232129 -0.382191 0.057186 0.347775 0.213788 0.035900 -0.068608 -0.173205 -0.118504 0.024285 -0.085063 0.062759 -0.019760 0.008200 -0.480868 0.380483 0.307943 -0.003829 0.221476 0.252164 0.147459 -0.148677 0.199486 0.271573 0.072743 -0.157076 -0.113400 0.209553 -0.312868 0.155903 0.067239 -0.269893 0.321386 0.266116 -0.360086 -0.151962 -0.065601 -0.013870 -0.507642 0.368240 -0.046004 -0.586379 0.246794 -0.284537 0.249927 -0.047616 -0.302673 0.212842 0.068866 -0.007750 -0.186345 -0.394534 -0.409653 -0.686783 0.069236 0.255473 0.245031 0.027689 -0.148196 -0.431186 -0.123986 0.255276 -0.135556 0.277455 -0.581259 -0.184320 -0.068742 0.043841 -0.055071
there 0.490026 -0.223873 0.184019 -0.457063 -0.260575 0.121012 0.103014 -0.293420 0.107970 0.370964 -0.097806 -0.010966 -0.318362 -0.007917 -0.267370 0.239135 -0.108801 0.090715 0.236503 -0.108410 -0.161866 -0.281104 0.264378 0.020055 -0.060325 -0.099720 0.270443 -0.087678 -0.228673 -0.231502 -0.693423 0.570265 -0.272730 0.376960 -0.111720 0.460104 -0.325430 0.215257 0.193793 -0.015353 0.041362 -0.420676 -0.325203 -0.144568 0.327387 -0.003814 0.245044 -0.205472 -0.026622 0.176599 0.015220 -0.175987 0.092297 -0.249737 0.281768 0.108885 0.175535 0.008500 -0.057772 -0.266700 0.276835 -0.182251 0.083975 -0.222979 0.330607 -0.511411 0.356358 0.432214 -0.020400 0.214886 -0.344385 -0.102016 -0.243512 0.269184 -0.099153 -0.270960 -0.232392 -0.505617 0.120116 0.314098 0.080614 0.272881 0.049786 0.382013 -0.512996 -0.334727 0.023040 -0.337606 0.052591 -0.408433 -0.234556 0.052954 0.165232 -0.183950 0.171457 0.310514 -0.186324 0.599836 0.019615 -0.317843
if 0.092168 0.230758 -0.200241 -0.087859 -0.358766 0.425919 0.169933 -0.312945 -0.197452 0.246289 0.158244 -0.082117 -0.391085 -0.075437 0.155189 -0.048045 -0.083150 0.152998 0.080151 0.304520 -0.243043 0.036053 -0.021787 0.225368 0.120571 0.078546 0.088773 -0.132363 -0.365621 0.100599 -0.159592 -0.189730 -0.393767 0.197749 -0.004228 0.357447 -0.416479 0.087913 -0.012697 -0.279736 -0.165181 0.124623 -0.282758 0.091038 0.091441 -0.296943 -0.137391 -0.059698 0.101838 0.250072 0.014097 0.052249 -0.007850 -0.031848 -0.016448 -0.277068 -0.157089 0.092436 -0.396297 -0.018001 0.545728 0.305209 -0.117110 0.039258 0.285511 -0.165580 -0.144425 -0.018863 0.208629 -0.144674 0.043269 -0.302101 -0.331004 0.076268 0.232048 -0.429765 -0.190140 -0.037499 -0.071035 0.277876 -0.107952 0.194127 0.164446 -0.116136 0.066651 0.211530 -0.088156 0.038729 0.229188 -0.208823 -0.327667 0.171818 0.052476 0.012767 0.139117 -0.470758 -0.189710 0.373720 0.345050 0.196832
need 0.685059 0.376665 0.325298 -0.302767 0.152664 -0.008482 0.009386 -0.230515 -0.016433 0.441815 -0.210980 -0.037258 -0.014383 -0.233711 0.049484 0.257146 -0.312770 -0.111331 0.374642 0.011370 -0.246359 0.174829 -0.070996 -0.277604 0.299332 -0.085180 -0.028838 0.098186 -0.345153 -0.239051 -0.162146 0.346932 0.146472 0.075086 0.143092 0.003028 -0.429345 0.109292 0.098741 0.099605 0.103770 0.192105 -0.004057 -0.093109 0.134719 -0.096528 0.072266 -0.161351 0.147717 0.134951 -0.104393 0.014663 -0.168279 -0.183069 0.235404 -0.228392 -0.007007 0.031726 -0.048622 -0.218870 0.600929 0.235544 -0.366026 0.200725 0.186768 -0.566367 -0.045460 -0.066490 -0.199092 -0.353373 0.000980 -0.318050 -0.141292 0.257393 -0.054990 -0.508427 -0.054214 -0.154520 -0.196623 0.121333 0.169964 -0.216205 -0.166390 0.210560 -0.370700 0.042785 -0.307749 0.008644 -0.096800 -0.608157 -0.260204 -0.103946 0.013373 -0.141501 0.418908 0.002393 -0.480970 0.255629 -0.340025 -0.046682
but 0.253794 0.213075 -0.183833 0.024771 0.113832 0.056619 -0.008067 -0.195224 -0.092462 0.199664 -0.073598 -0.099476 -0.264730 -0.082754 0.083476 0.429144 -0.035996 0.000140 0.269560 0.069975 -0.197330 0.350298 0.106338 -0.027629 0.062123 -0.106208 0.100948 0.208651 -0.257152 -0.199275 -0.240608 0.140788 -0.379037 -0.176258 0.059060 -0.010768 -0.142639 0.243912 0.072892 -0.235734 -0.071513 0.188891 -0.303042 0.015980 0.083186 -0.026123 -0.214009 0.103087 0.410904 0.066812 0.009693 -0.064727 0.027290 -0.046655 0.011358 -0.137588 -0.057157 0.033444 0.030752 -0.207282 0.387215 0.289041 -0.065693 0.147376 0.394514 -0.243273 -0.058557 0.346113 0.191647 -0.200598 -0.054544 -0.051297 -0.449153 0.209264 0.097233 -0.088609 -0.257383 0.043219 0.042226 0.203286 0.129833 -0.002959 -0.059658 0.007535 -0.338825 0.036618 -0.124880 -0.053206 -0.042281 -0.427700 -0.220045 -0.119541 -0.029743 0.235057 0.135762 -0.179089 -0.199763 0.093065 0.020574 0.019213
with 0.366467 0.304961 -0.090712 -0.298995 -0.322896 -0.172721 0.213671 0.042571 -0.183621 -0.005084 -0.052213 -0.228047 -0.326239 0.437617 -0.072603 0.319199 -0.007220 0.116524 -0.089493 0.149993 -0.353649 0.239386 0.178452 0.277799 -0.116912 0.057721 -0.000724 0.052037 -0.345352 -0.229698 -0.091782 0.126719 -0.242146 0.449971 0.077809 0.245658 -0.623815 0.017552 0.144750 -0.196818 -0.192785 0.315396 -0.019860 0.026059 0.180786 -0.282437 -0.017180 -0.156193 0.085586 -0.049780 -0.041864 -0.101001 -0.088073 0.044252 0.030427 -0.094735 0.099766 0.096662 -0.165130 -0.404444 0.133950 0.412711 -0.061006 0.074861 0.156425 -0.136908 -0.041676 0.121774 0.112740 -0.421624 -0.123118 0.196386 0.021262 0.009975 0.024497 -0.156922 -0.367308 -0.075043 -0.281974 -0.044693 -0.224382 -0.050128 -0.058678 0.079740 -0.123518 0.071087 -0.255312 0.188738 -0.017955 -0.139343 -0.466783 -0.273691 0.036065 0.207973 -0.106317 -0.128005 -0.143127 0.155682 -0.044910 -0.108881
billion 0.063962 0.305519 0.325648 -0.147672 -0.060197 0.233417 -0.291436 -0.189304 0.159649 0.221971 0.294772 0.005576 -0.055185 0.429068 0.030887 0.132596 -0.136789 -0.165431 -0.026565 -0.319739 0.014613 0.150402 0.419987 -0.084458 0.095769 -0.009833 0.187628 -0.356076 -0.507513 0.202581 -0.448735 -0.142010 -0.336618 -0.221506 -0.240050 -0.215913 -0.373516 0.075042 -0.343221 -0.425033 0.243404 0.550903 -0.258433 0.442933 0.792566 -0.164856 -0.297700 -0.211761 0.659472 0.271106 0.420672 0.161766 0.068887 -0.316978 -0.136834 -0.353895 -0.044181 0.603413 -0.276208 -0.517383 0.192908 -0.248504 -0.538296 0.105707 0.284192 -0.158753 0.491945 0.661023 -0.128653 0.261853 0.308200 -0.144655 -0.602138 0.507377 -0.016867 -0.660148 -0.131809 -0.048787 -0.137701 0.403929 -0.309528 0.003021 -0.000146 -0.146761 -0.419673 0.180823 -0.775476 0.299663 -0.432365 -0.428976 0.072548 0.079922 -0.234247 0.235028 0.464891 -0.910121 0.003984 0.454131 -0.421090 0.085534
much 0.217925 0.051909 0.263132 -0.479549 0.407578 0.151955 0.470345 -0.362008 -0.012641 0.291583 0.218782 0.570607 -0.277891 0.075806 -0.253183 0.250404 -0.104060 0.103167 -0.378920 0.040618 -0.083867 -0.074464 0.226916 0.510222 -0.021445 -0.172147 0.215883 0.437879 -0.371317 0.130823 -0.208071 -0.358680 -0.130797 -0.155716 -0.267910 0.268316 -0.235190 0.026020 -0.278984 -0.317152 0.364536 0.279335 -0.754135 0.241911 0.454927 -0.397010 -0.263440 0.317046 0.263992 0.185001 0.133314 0.057557 -0.116135 -0.172273 0.244585 -0.097427 0.254094 0.266466 0.287659 0.271048 0.369334 0.463593 -0.758709 -0.120944 0.656854 -0.418870 0.408388 -0.109631 -0.315113 0.116233 -0.079440 0.035769 -0.686184 0.206859 0.071590 0.075309 -0.069336 -0.404842 0.156332 0.623498 0.074364 0.309036 -0.297286 0.141864 -0.545256 -0.226043 0.002403 -0.070392 -0.022659 -0.292941 -0.061919 -0.252518 -0.120135 -0.204798 0.145715 -0.416720 -0.586866 0.413267 -0.071021 0.402740
from 0.155724 -0.342742 -0.262314 -0.087009 0.146734 -0.207816 0.021001 0.147536 0.093828 0.328384 -0.103286 -0.739679 -0.127050 0.271126 0.173923 0.239393 0.245290 0.238027 -0.414589 -0.237735 -0.260509 0.275469 -0.007891 0.178854 -0.073364 -0.105501 0.197452 -0.141820 -0.746491 -0.133163 0.028099 0.269260 -0.214967 0.166355 0.105906 0.285021 -0.287220 0.240711 -0.010609 -0.198979 0.055022 -0.279215 -0.293988 -0.337158 0.342981 -0.524876 -0.160708 0.229196 -0.005934 0.191429 -0.144481 0.087087 -0.294376 0.026013 0.107168 -0.015168 0.406412 0.054200 -0.235414 -0.156817 0.136783 0.002621 0.049743 -0.293447 0.443376 -0.359533 0.116809 -0.033224 0.443579 -0.284158 -0.323493 0.356281 0.159432 0.162159 -0.527311 -0.279399 -0.313600 -0.064756 -0.437988 -0.275760 0.275510 0.377808 0.023208 -0.238104 -0.012601 -0.211314 -0.431998 0.047799 0.216824 -0.077061 -0.607859 0.070273 0.134854 0.058029 0.303709 0.056848 -0.359896 -0.001185 0.320866 0.097856
dollars 0.044831 0.057633 0.325854 -0.323874 0.119072 0.301291 -0.270481 -0.421997 0.126827 0.159420 0.361803 -0.129516 0.295281 0.107643 0.111855 0.113102 -0.309448 0.192296 0.269745 -0.127353 0.209506 0.125877 0.132455 0.068244 0.238680 0.019975 0.103179 -0.151751 -0.643007 0.230141 -0.312216 -0.100220 -0.473742 -0.097660 -0.539603 -0.288286 -0.589598 0.461940 -0.168127 -0.718953 0.357018 0.399347 -0.585418 0.015574 0.586483 -0.220583 -0.349314 0.262174 0.460019 0.393932 0.326965 0.458075 0.162037 -0.183313 0.051278 -0.354315 0.016649 0.326468 -0.149863 -0.431937 0.327813 -0.447365 -0.646045 -0.060468 -0.024244 -0.125980 0.191251 0.684587 0.462198 0.124932 0.076592 -0.255710 -0.624997 0.228996 -0.366230 -0.284810 -0.072383 -0.199302 -0.010607 0.342930 0.125586 0.083012 0.155578 -0.070374 -0.163464 0.074749 -0.836541 0.231477 -0.242289 -0.265085 -0.044563 0.501463 -0.343350 0.280171 0.585489 -0.418777 0.054890 0.483800 -0.146299 -0.376392
many 0.220832 0.030683 -0.166279 -0.353732 0.124743 -0.082460 0.374914 -0.098158 0.400754 0.062013 0.361028 -0.151541 -0.373438 0.260609 -0.279292 0.058504 0.291001 0.164360 -0.241859 -0.000049 -0.050819 0.055457 0.379816 0.429773 0.590586 -0.262386 0.342267 -0.009732 -0.198698 -0.385280 -0.108532 -0.085464 -0.200502 -0.107806 0.001688 0.180119 -0.491235 -0.028226 -0.194525 0.548530 0.277145 0.004206 -0.598041 -0.480918 0.260204 -0.237710 -0.271238 0.124634 -0.275875 0.092932 -0.081154 -0.220461 -0.092905 0.244013 0.090940 0.237341 0.094856 -0.146952 0.588973 -0.549534 0.199795 0.024358 -0.359353 0.139155 0.312197 -0.542918 -0.095696 0.191589 0.153406 -0.182011 -0.019654 0.383132 -0.103686 0.531776 -0.039857 -0.079979 -0.534365 0.027229 -0.284380 -0.170382 0.051422 0.160426 -0.234939 0.165143 -0.606939 0.194664 -0.071699 0.080116 0.123835 -0.369636 -0.648094 -0.195843 0.239359 -0.324235 -0.163611 0.307251 -0.366784 0.123237 0.266988 0.122051
or 0.353562 0.020030 -0.055413 -0.056389 0.218130 0.308009 0.163372 -0.153462 0.008913 0.201401 -0.253157 -0.416565 -0.294038 -0.224530 0.029569 0.244599 -0.230550 -0.088710 -0.209679 -0.015087 -0.128455 -0.434097 0.120267 0.062955 0.026020 -0.136391 -0.439385 -0.016431 -0.612985 -0.408008 -0.368598 0.228035 -0.001747 0.577831 0.020448 -0.009685 -0.118416 0.180383 0.274436 -0.253141 -0.024709 -0.365278 -0.364985 0.043399 -0.040802 -0.037517 -0.030966 -0.114555 0.172886 0.081226 0.168390 0.141949 -0.311589 0.107729 -0.135652 -0.395900 -0.072265 -0.101465 -0.060363 -0.093751 0.278026 0.191751 -0.426160 0.138223 0.388205 -0.402733 0.123012 0.353517 0.278882 -0.129166 -0.195357 -0.408857 0.065715 0.043706 -0.151800 0.166277 -0.129530 -0.115889 -0.244284 0.121254 -0.164399 0.060457 0.077704 -0.488867 0.083579 -0.109009 -0.076557 0.315576 0.183062 -0.117577 -0.441842 0.113369 -0.419017 0.252452 0.419152 -0.133937 -0.255657 0.190675 -0.088258 -0.139175
about 0.123570 0.187216 -0.122639 0.023325 -0.072580 0.101945 0.485971 -0.270367 0.263800 0.014000 0.222742 -0.217657 -0.412955 -0.497233 -0.181527 0.786746 0.015400 -0.058672 0.059612 0.167498 -0.399091 0.301962 0.160927 0.395308 -0.396890 0.055073 0.222922 -0.185483 -0.251001 -0.192247 0.111866 0.103091 0.034533 -0.089835 -0.510908 0.214951 -0.728292 0.058153 0.157507 -0.375841 0.067330 0.206660 -0.034483 -0.190318 0.140127 0.052541 -0.026931 0.042941 0.438074 0.323495 0.385838 0.020237 -0.042480 -0.467181 0.308051 0.096621 0.444017 -0.192393 -0.035718 -0.125765 0.525240 0.180839 -0.094342 -0.065041 0.259348 -0.416969 -0.311265 -0.170444 -0.088982 -0.086180 0.385758 0.035975 -0.217679 -0.157985 -0.207874 -0.125661 0.041814 0.260272 -0.469498 0.242022 -0.140358 -0.105601 -0.177148 0.306754 -0.373583 0.006239 -0.623800 0.135384 0.462100 0.017262 -0.237343 0.282279 0.251336 0.018737 0.166392 -0.135390 -0.271314 -0.200137 -0.039316 -0.002671
use 0.420744 0.085776 -0.077582 -0.513447 0.105593 -0.157503 -0.108012 0.060475 0.119020 -0.115980 -0.069040 -0.200181 -0.200629 0.110501 -0.205924 0.106996 -0.068692 -0.081393 -0.011309 0.131306 -0.450824 -0.157182 -0.121470 0.138590 0.210622 -0.289963 0.461306 0.254721 -0.378505 -0.181837 -0.251373 0.041428 0.019301 0.015413 0.071561 0.080739 -0.199902 0.318393 -0.046673 -0.258523 -0.005661 0.268639 0.316356 -0.000774 0.222008 0.125783 -0.093495 0.160365 0.346274 0.121101 -0.081783 0.131828 -0.262644 -0.295866 0.043159 -0.406124 -0.010115 0.116891 -0.083603 -0.095511 0.167208 0.246353 -0.643209 -0.185259 -0.019875 -0.498221 0.094418 -0.062608 0.247975 -0.734436 -0.114582 -0.117753 -0.292014 0.221685 -0.142408 -0.534632 0.024765 -0.008519 -0.153022 0.256442 0.259416 -0.162455 -0.040504 -0.288710 -0.290344 0.222674 -0.369511 0.334996 -0.217082 -0.070726 -0.351104 -0.067520 -0.082460 0.045400 0.643580 -0.163004 -0.491409 -0.028140 0.093684 -0.158861
other 0.141342 0.021159 -0.645513 0.071819 0.366122 0.460425 0.185611 -0.340365 0.229620 0.099688 0.187783 -0.118294 -0.710034 -0.184932 -0.541835 0.191693 0.258223 0.065139 -0.068819 0.046595 -0.101131 -0.183310 0.330583 0.327808 0.376800 -0.238622 -0.061542 0.186024 -0.498423 -0.355225 -0.129422 -0.350303 -0.423772 0.310719 0.079117 0.173241 -0.208146 -0.192300 -0.077725 0.131081 0.099102 -0.176154 -0.362250 -0.184551 0.119154 0.104678 0.286212 0.065321 -0.178061 0.556181 -0.303428 -0.003795 -0.033986 -0.144903 0.110977 0.019686 -0.099044 -0.023083 -0.236168 -0.033821 -0.249455 -0.146265 -0.407581 0.134412 0.124346 -0.149404 -0.324231 0.255207 0.207902 -0.346156 0.086992 0.062650 -0.296745 0.695400 -0.229880 -0.787475 -0.144936 -0.069442 -0.187631 -0.092809 0.152011 -0.039940 -0.230872 0.146363 -0.735584 0.080236 -0.559363 0.367427 0.141155 -0.372687 -0.199726 0.304794 0.025391 -0.019831 -0.015524 -0.295643 -0.044503 0.165595 0.155639 -0.144340
all 0.368638 0.297922 -0.093272 -0.271952 -0.106720 0.207752 0.264798 -0.086596 -0.237700 0.020509 -0.066593 0.053033 0.138615 -0.035246 -0.110375 0.215314 0.060466 -0.025801 0.160505 0.008513 -0.015085 0.441603 0.346187 0.333509 0.055443 -0.173617 0.332108 -0.129168 -0.393657 -0.373217 -0.315780 0.248109 -0.159955 -0.210748 0.021275 0.308423 -0.101379 0.183299 0.034366 -0.175054 -0.141047 0.071125 -0.244558 0.135005 0.227462 -0.407227 0.015290 0.279931 -0.086255 -0.130271 -0.278116 -0.009995 0.003517 0.053056 -0.005814 -0.399727 0.269138 0.467138 0.028224 -0.388578 0.034545 -0.061189 0.223662 0.148233 0.448969 -0.106666 -0.406985 -0.066305 -0.335315 -0.132548 -0.005046 0.089033 -0.047876 -0.195665 0.117131 -0.231658 -0.052488 0.030030 0.020653 -0.001147 0.345737 0.305705 0.154155 0.020536 -0.295844 0.026032 -0.252052 0.257050 -0.141878 -0.484636 -0.276041 -0.096869 -0.240504 -0.126359 0.116519 -0.653356 -0.134041 -0.023538 0.140200 -0.114493
things 0.434500 0.553115 0.041533 -0.326796 -0.427502 0.056777 -0.077199 -0.140428 0.073413 0.214416 -0.189826 -0.186326 -0.487708 0.146846 -0.215774 0.376096 -0.327825 0.331543 0.064095 0.051501 0.050456 0.005937 0.141450 0.298062 0.226798 -0.263494 -0.172132 0.303587 -0.178578 -0.139010 -0.213062 0.323889 -0.135311 0.088241 -0.293173 0.324819 -0.244954 0.121984 0.063669 -0.028616 0.204728 0.241381 -0.498850 -0.171381 0.036878 0.100821 0.076555 0.184578 0.200237 0.311969 -0.261366 0.051351 0.262240 -0.104005 -0.014846 -0.253123 -0.237969 0.038703 0.064348 -0.256945 0.317838 0.431355 -0.340642 -0.002674 0.410891 -0.215963 -0.285118 -0.106704 -0.435026 -0.147873 -0.213151 -0.079758 -0.396438 0.197806 0.331344 -0.040780 0.127030 -0.048357 0.009746 -0.112412 0.017851 -0.204377 0.079894 0.130550 -0.163725 -0.164319 -0.301620 0.214621 0.035565 -0.229028 0.035052 0.011414 -0.072778 0.124129 0.263571 -0.116319 -0.219887 0.610382 -0.458228 -0.213553
poverty 0.535420 0.419280 0.080981 -0.458737 0.131193 0.067788 -0.393214 -0.041064 0.138398 0.240668 0.182558 -0.052200 0.046391 -0.222224 0.042914 0.328972 -0.040689 0.165643 -0.039681 -0.476200 -0.052128 0.462695 0.372426 0.081724 0.404064 -0.405309 0.004588 -0.439302 -0.163390 -0.257514 -0.544499 0.261545 -0.405593 0.352197 -0.120416 0.252390 -0.667292 0.203460 -0.122492 -0.539312 -0.054749 -0.075031 -0.043117 0.128726 -0.118183 -0.350509 0.198479 0.026654 -0.469699 0.275333 -0.042083 0.425837 0.131787 -0.056481 -0.374068 -0.005648 0.154150 -0.262955 0.342860 -0.517506 -0.100228 -0.092405 -0.137938 -0.024747 -0.318912 -0.358189 0.216792 0.300598 -0.127903 -0.224090 -0.192672 -0.263454 -0.326048 -0.005874 -0.341470 -0.327156 -0.118027 -0.037029 -0.206832 -0.270966 -0.251194 0.572424 0.271175 -0.183433 -0.105671 -0.026526 -0.193355 0.133911 -0.042143 -0.499808 -0.504216 -0.218334 -0.185183 -0.030605 -0.068631 -0.158848 -0.451069 0.130808 -0.207523 -0.364073
like 0.589551 0.202829 -0.031726 0.081982 0.058864 0.156100 0.205289 -0.153814 -0.183725 0.093014 0.168378 -0.454607 -0.211721 -0.185354 -0.373822 0.332925 0.082038 -0.192336 -0.355662 -0.331851 -0.145676 0.012888 0.015384 0.117893 -0.032910 -0.127013 -0.002852 0.403424 -0.423011 -0.295955 -0.395873 -0.006339 -0.159277 0.255095 0.099913 0.051253 -0.367297 0.259164 0.171451 0.070049 -0.122571 -0.039188 0.006860 -0.269175 0.169989 -0.227717 -0.131149 -0.061780 0.082590 0.141096 -0.047326 -0.138420 -0.130440 0.153190 -0.110560 -0.249884 -0.095774 -0.111090 -0.217389 -0.031370 -0.005479 0.020703 -0.254178 0.009959 0.373829 -0.113199 -0.166502 0.282941 0.393053 -0.186756 -0.240790 -0.133850 0.032359 0.393378 -0.171285 -0.271512 -0.017199 0.013930 -0.210367 0.031235 -0.035045 -0.149140 -0.253938 -0.004520 -0.328277 0.098381 -0.370276 0.235961 0.224757 -0.217422 -0.277771 -0.030510 -0.138261 0.092384 -0.160450 0.066749 0.047168 0.278778 -0.094517 -0.055554
some 0.281536 0.203009 -0.267384 -0.213744 0.264276 0.279074 -0.018981 -0.163449 0.369521 -0.129335 0.141147 -0.142969 -0.297482 0.129004 -0.086689 -0.164394 0.242628 0.567523 0.299364 0.313383 -0.236868 -0.085505 0.061609 0.044250 0.140524 0.200166 -0.152092 -0.020213 -0.742776 -0.277219 -0.188813 0.084496 -0.247273 0.111084 -0.255675 0.022631 -0.298768 0.005765 0.080804 -0.090411 -0.005450 0.347331 -0.503627 0.218593 0.226047 -0.215362 -0.215198 -0.051552 -0.033627 0.050459 -0.095736 -0.251142 -0.234834 -0.063148 -0.136835 0.310345 0.003974 0.191605 0.321652 -0.688581 0.303754 0.230391 -0.201097 0.504124 0.127211 -0.200244 -0.007665 0.366326 -0.064833 -0.152095 -0.227333 0.154236 -0.106182 0.222451 -0.063176 0.028906 -0.307437 -0.216532 -0.059134 -0.106661 0.068182 0.267856 -0.099234 -0.112912 -0.562922 0.147262 -0.279876 0.135375 -0.090795 -0.597867 -0.695198 0.130214 0.230660 -0.071936 0.043787 -0.278698 0.080894 -0.216435 0.009673 -0.267850
you 0.170536 0.036189 -0.109735 -0.122780 -0.469158 0.488883 -0.259313 -0.434414 0.117355 0.199098 0.033157 -0.132861 -0.408291 0.026661 0.013336 0.113118 -0.078849 0.002488 0.346560 0.191668 -0.606535 -0.232640 0.000726 0.372599 -0.041749 -0.114588 0.050201 -0.018680 -0.193716 0.312011 -0.103772 0.092897 -0.538784 0.063092 -0.232330 0.108680 -0.793832 0.292849 0.074944 -0.182354 -0.194809 -0.110440 -0.266988 0.065778 0.275175 0.328859 -0.121929 -0.199742 0.111180 0.212042 0.006831 -0.273788 -0.081197 -0.147321 -0.021877 -0.326843 -0.412096 0.242542 0.189173 -0.161827 0.323366 0.249130 -0.301514 0.211607 0.518675 -0.060002 0.325440 0.390625 -0.074144 0.473019 -0.088709 -0.342241 -0.487965 -0.104991 -0.054159 -0.312001 0.193433 -0.036446 0.387507 0.181772 0.332471 0.287254 0.087534 -0.062938 -0.174290 0.090271 -0.101376 -0.214907 0.134049 -0.182771 -0.235475 -0.003316 0.363071 0.357299 0.365138 -0.440359 -0.338340 0.023142 0.251812 -0.083748
by 0.070410 0.022733 -0.415582 -0.040467 -0.594074 -0.001666 0.272604 0.073828 0.202504 -0.013582 -0.029942 -0.453192 -0.055537 0.277451 0.248605 0.176806 -0.125345 -0.084489 -0.148998 -0.107158 -0.512605 0.344921 0.330512 0.262294 -0.107616 0.080535 0.079213 0.079871 -0.360509 -0.053568 -0.337246 -0.286913 -0.398831 -0.096486 0.363478 0.160349 -0.307562 0.212179 -0.191087 -0.027838 -0.093232 0.042042 -0.206278 -0.134313 0.286097 -0.602603 -0.217364 0.631397 -0.033279 -0.116691 -0.048603 -0.122436 -0.185560 0.213413 0.135383 -0.156156 0.513775 -0.253354 0.071582 -0.402612 0.271439 0.172247 -0.025622 -0.200669 0.488791 -0.356563 0.074836 0.351447 0.324132 -0.157473 -0.145928 0.274447 0.268771 0.024735 -0.611637 0.016717 -0.224665 0.081622 -0.195088 -0.246867 -0.267151 0.056419 0.088744 -0.122003 0.403994 0.248301 -0.185369 -0.202054 -0.240629 0.207272 -0.802467 -0.368124 0.408362 -0.037333 0.132182 0.208798 -0.163105 0.195367 0.006478 -0.232962
when 0.034447 0.366164 0.351205 -0.230202 -0.073520 -0.031157 0.717784 -0.582731 0.016132 0.262420 0.100027 0.052390 -0.462220 -0.115602 0.095376 0.020654 0.017595 -0.025251 -0.170942 0.161436 -0.320584 -0.216681 0.259157 0.326262 0.230120 -0.002797 0.161477 -0.295121 -0.272282 0.116721 -0.442058 0.150470 -0.106834 0.297813 -0.145667 0.374055 -0.519320 0.128043 -0.105803 -0.267281 0.200677 0.002941 -0.306940 -0.022688 0.502647 -0.125811 -0.323084 -0.040998 0.319218 0.198582 -0.105118 -0.109903 0.047316 0.043108 0.339246 0.022001 0.320303 0.266527 -0.272612 0.137860 0.502605 0.295123 -0.026851 -0.224973 0.278873 -0.650219 0.500743 0.334647 -0.183126 -0.126353 -0.267666 -0.048098 -0.115894 0.153295 -0.101708 -0.079949 -0.274449 -0.113951 0.145608 0.141288 0.113533 0.356975 0.093736 0.382038 0.131627 0.249016 0.155877 -0.244799 -0.084292 -0.097936 -0.256776 0.076931 0.024379 -0.366911 0.294284 0.136637 -0.319728 0.615372 0.119869 0.339904
will 0.283829 -0.000896 0.048302 -0.130379 -0.109099 0.209673 -0.137224 0.042887 -0.025223 0.439457 0.056672 -0.137180 0.027093 -0.214334 0.171548 0.142352 -0.215713 -0.043390 0.137811 0.222960 -0.375187 -0.055251 0.097605 0.131762 0.392963 -0.060053 0.125326 0.441843 -0.203584 -0.101702 -0.033473 0.227130 0.013224 -0.159227 0.361928 -0.304159 -0.619396 0.095162 -0.126556 -0.397953 -0.178876 -0.339124 -0.273657 -0.190941 -0.047123 -0.282786 0.191102 0.398984 0.114164 -0.012816 0.154389 0.010700 -0.183363 -0.217952 -0.130322 -0.337261 -0.056956 0.121922 0.012107 -0.097387 0.633779 0.034293 -0.369648 0.371226 0.214047 -0.158720 -0.025430 -0.128093 0.069290 -0.048019 0.394433 -0.547336 -0.389579 0.093892 -0.058363 -0.208278 -0.206164 0.130708 -0.088857 -0.236419 -0.039330 0.025783 -0.248102 -0.194287 0.159948 -0.047880 0.211022 -0.018452 0.147259 -0.223293 -0.598170 -0.374020 0.362765 0.012439 0.033379 -0.143516 -0.137365 0.125721 -0.012471 0.170762
dont 0.270906 0.351247 0.265291 -0.201487 0.132739 0.227807 -0.121124 -0.156856 -0.041550 0.408924 0.045951 -0.535253 -0.441655 -0.723961 -0.088094 -0.024663 -0.348501 -0.164908 0.163605 0.184153 -0.172854 0.029966 -0.070577 0.304933 0.223298 -0.095192 0.318074 0.154095 -0.551370 -0.053593 0.005622 0.206429 -0.089708 -0.119565 0.243421 0.031007 -0.611140 0.091545 0.442020 -0.244584 -0.054102 -0.024551 -0.118324 0.135460 0.113854 -0.032925 -0.188626 -0.199479 0.156336 -0.043618 -0.055396 -0.000326 -0.344208 -0.272626 0.007489 -0.217634 0.008149 0.273077 0.080776 -0.017280 0.301859 0.331253 -0.019367 0.189327 0.079937 -0.323187 -0.209005 0.164479 0.125258 0.511463 0.276509 -0.489615 -0.301638 0.477469 -0.229823 -0.398899 -0.380610 -0.172980 -0.024968 0.023116 0.388656 0.080023 0.249021 -0.020616 -0.490168 0.233687 -0.551709 -0.003569 0.122272 -0.532961 -0.407940 0.315040 0.127540 -0.091390 0.756963 -0.017511 -0.158987 0.086249 0.089877 0.117681
do 0.285616 0.261666 -0.067984 -0.291660 -0.068319 0.224443 0.058133 -0.257863 -0.038385 0.440615 0.037517 -0.353824 -0.398586 -0.342365 0.075089 0.037455 -0.042519 -0.028794 0.035090 -0.062902 -0.004943 0.161851 0.177090 -0.002084 0.256539 -0.037234 0.686283 0.199144 -0.100835 -0.143160 -0.151396 0.112598 0.116614 -0.030092 -0.071377 0.171653 -0.566260 0.164135 0.310836 -0.063826 -0.040538 0.105030 -0.174607 -0.220479 -0.017130 0.000601 0.097856 0.018346 0.494589 -0.039022 -0.010407 -0.050053 -0.047304 -0.297493 0.057645 -0.087407 -0.224326 0.122015 -0.099788 0.061972 0.358236 0.314580 -0.091721 0.220224 0.103078 -0.366687 -0.190302 0.212849 0.231263 0.143309 0.440862 -0.441930 -0.374219 0.213337 -0.084948 -0.386438 -0.182010 -0.108457 0.044595 0.423841 0.494151 0.013315 -0.050402 -0.280139 -0.525513 0.105716 -0.514920 -0.074920 -0.110588 -0.566315 -0.503602 0.074123 0.118778 0.204425 0.533220 -0.086021 -0.158955 0.023867 0.159730 -0.094950
problems 0.371562 0.854726 0.170902 -0.707596 -0.568137 0.022476 -0.227824 -0.163289 0.198828 0.216322 0.090271 -0.085235 -0.568028 0.201919 0.107739 0.241034 -0.080841 0.420995 -0.292042 -0.172607 0.194540 0.537803 0.393494 -0.137861 -0.074649 0.272344 0.200815 0.230216 -0.078692 -0.089733 -0.450615 -0.004718 0.010964 0.360883 -0.413885 0.004218 -0.302298 0.077589 -0.089854 -0.305194 -0.041505 -0.046691 -0.707179 0.160235 -0.491092 -0.454016 0.192010 0.650119 0.109650 -0.377601 -0.085974 0.383612 0.284718 -0.226838 -0.320315 0.529692 0.660144 -0.194045 0.227166 -0.501158 0.156784 0.509441 0.000242 0.104239 0.072767 -0.484107 -0.429342 0.346882 -0.172760 -0.162648 0.163335 -0.266025 -0.231941 0.311271 0.199500 0.075530 -0.310168 -0.265272 0.005159 -0.192880 -0.293916 0.088782 0.254567 -0.281865 -0.030303 0.109867 -0.343517 0.071529 -0.322575 -0.399491 -0.439876 0.203217 0.043230 0.326894 0.072936 -0.377035 -0.387115 0.343556 -0.329393 -0.605192
why 0.062190 0.341107 0.104186 -0.362775 -0.588820 0.164516 -0.119605 -0.311154 -0.024971 0.143675 -0.104952 -0.057634 -0.031454 0.056855 0.052754 -0.257385 -0.336371 0.078143 0.397346 0.226194 -0.253122 0.107873 0.251204 0.512638 -0.318483 -0.105246 0.637822 0.014820 -0.566774 -0.213280 -0.504289 0.206332 0.018953 0.194412 -0.485984 0.261833 -0.028370 0.248935 0.123678 -0.635454 0.021003 0.071647 -0.537211 -0.005816 0.366122 0.205780 -0.100643 -0.315841 0.228630 0.242755 -0.064696 0.028551 -0.044563 -0.153529 0.150069 0.105695 0.044346 0.359984 0.257354 -0.030277 0.390386 0.093214 0.014577 0.200421 0.284430 -0.211995 -0.098042 0.492543 0.229395 -0.167537 -0.299622 -0.101707 -0.332289 0.205633 0.243119 -0.267556 -0.195331 -0.225863 -0.061063 0.258126 0.382197 0.061334 0.069840 0.098108 -0.321080 0.262989 -0.260233 -0.188681 -0.150015 -0.695245 -0.388318 0.063887 -0.167778 -0.596125 0.285122 -0.314470 0.062869 0.421737 -0.239373 -0.017089
would 0.272849 0.158720 0.101482 -0.116335 -0.115711 0.258422 -0.139507 0.028171 -0.240214 0.173947 0.008045 -0.285298 -0.014707 -0.307368 0.025640 0.235870 -0.169368 0.020866 0.110198 0.213220 -0.300995 -0.236979 0.103981 0.115820 0.195641 -0.244319 0.168076 0.318549 -0.461814 -0.006273 -0.191224 0.130723 -0.124561 -0.220133 0.246960 -0.202913 -0.638593 0.016165 0.004477 -0.261376 -0.291730 -0.215420 -0.246319 0.057232 0.101763 -0.507888 0.154206 0.262104 0.101341 0.051548 0.110191 -0.042713 -0.022937 -0.343465 -0.171784 -0.343014 -0.022701 0.298658 0.023297 0.128339 0.330198 0.150368 -0.210583 0.151821 0.303019 -0.016383 -0.039513 -0.101460 0.167331 0.011267 0.275126 -0.574627 -0.398509 0.002466 -0.236469 -0.178186 -0.173801 0.059387 0.057263 -0.230538 0.156905 -0.030347 -0.005405 0.061326 0.265073 0.082646 0.055248 -0.053920 0.036954 -0.302115 -0.443527 -0.367251 0.283044 -0.010183 0.094915 -0.240431 -0.040416 0.160423 -0.116940 0.141527
nasa -0.062951 0.227800 0.190341 -0.530658 -0.158795 0.140671 0.088595 -0.389371 0.075315 -0.316047 0.040943 -0.058081 -0.346383 -0.084869 -0.280829 0.103467 0.236554 -0.032080 -0.404283 0.260779 -0.345326 -0.192839 0.636334 0.075078 -0.052011 -0.191761 0.141077 0.092459 -0.298083 0.468099 -0.326334 0.198038 -0.038579 -0.146625 -0.068853 0.039684 0.032040 0.353013 -0.193501 0.001319 -0.285969 -0.043741 -0.391127 0.004846 0.361684 0.123791 -0.012454 0.250526 -0.048192 0.472269 0.152662 -0.230945 0.193477 0.102716 0.162359 -0.002280 -0.159958 0.249600 0.353908 -0.040912 -0.098746 -0.050562 -0.216194 -0.019426 -0.021954 -0.035229 -0.330520 0.205330 -0.091813 -0.239784 -0.594676 0.363360 -0.175933 0.105218 -0.380106 0.113705 -0.337612 -0.122897 -0.048956 -0.324049 0.562633 -0.140857 0.257416 0.295379 -0.264331 0.359551 -0.314216 0.557425 -0.011948 -0.361222 -0.147816 0.199137 0.231014 -0.100747 0.527121 -0.718038 0.066124 0.044785 0.065056 -0.091436
author 0.109123 0.193112 0.371195 -0.582532 -0.519205 0.106470 0.211236 -0.226031 -0.056583 -0.476651 -0.091236 -0.290384 -0.332545 -0.132394 0.101051 0.129365 0.332220 0.153639 0.068555 0.239687 -0.414443 0.483049 0.575960 0.247518 -0.201465 0.165182 0.579083 -0.131143 -0.607088 0.225937 -0.781195 0.155846 0.479291 0.357562 0.006082 0.204787 -0.537890 0.085022 0.158635 0.086723 0.037607 0.244151 -0.820247 0.208780 0.570883 -0.024999 -0.008014 -0.148564 0.058027 -0.096738 0.503767 0.141047 0.132070 -0.412526 -0.094241 0.214269 0.262228 0.256251 0.348500 -0.227905 0.106419 0.485348 0.141300 -0.057889 0.072012 -0.166312 -0.062016 0.461729 0.253549 -0.019310 -0.536064 -0.223220 -0.540203 -0.316589 -0.048235 -0.100310 -0.254490 0.093370 0.031245 0.096408 0.234037 -0.249257 -0.032462 0.360523 -0.621152 -0.238847 -0.133744 -0.200222 0.205121 -0.605315 -0.013951 -0.239752 -0.517434 -0.021391 -0.376025 -0.695672 0.296723 0.306330 0.022843 0.322577
as 0.215128 0.354995 -0.356974 0.151023 0.160920 0.122700 0.224854 -0.157098 0.129923 0.050252 0.020399 -0.378892 -0.812637 -0.480984 -0.131951 0.298711 0.016042 -0.388599 -0.114877 -0.325271 -0.005070 -0.012805 0.260208 0.162921 0.221234 0.007767 0.044075 0.658561 -0.622302 0.004485 -0.595915 0.035280 -0.170496 0.420018 -0.105379 -0.132642 -0.022509 0.457474 0.100361 -0.707926 0.142846 0.355403 0.327293 -0.403157 0.515303 0.022406 0.107506 0.205704 -0.145860 0.154085 -0.125887 0.001488 0.057297 0.477164 0.025841 -0.141895 0.345423 0.179055 0.200802 0.188118 0.267202 -0.279232 0.013674 0.529451 0.115774 -0.487498 0.074991 0.262712 0.384275 -0.099036 -0.577066 -0.050801 -0.312317 0.527387 0.015870 0.074282 -0.306229 0.045804 0.351966 -0.312368 -0.368574 -0.071850 -0.465646 -0.150484 -0.265573 -0.241244 -0.263976 0.135969 -0.014727 -0.150767 -0.099663 -0.148153 -0.348130 0.204646 0.029652 0.341716 -0.302100 0.009437 -0.175345 0.065020
fund 0.169704 0.045517 0.045340 -0.586545 -0.200931 -0.063717 -0.285100 0.027102 0.087747 0.307117 -0.035564 -0.105150 -0.438695 -0.118730 0.264974 0.052614 -0.158013 0.107511 0.020474 0.194103 -0.122823 0.232232 0.455233 0.144757 -0.362653 -0.168521 0.718908 -0.150324 -0.331873 -0.115196 -0.334392 -0.022549 0.155547 0.041231 -0.334928 0.459869 -0.269951 0.246007 -0.096448 -0.396236 -0.092608 0.109980 -0.354916 -0.070613 0.409409 -0.060231 -0.016245 0.096150 0.463507 -0.003117 0.231822 0.057606 0.131746 -0.491849 0.024864 0.068704 -0.025021 0.211399 0.114537 -0.195106 0.235661 -0.089004 -0.010930 0.162923 -0.306578 -0.564157 0.363129 0.321777 0.413813 -0.438079 -0.223505 -0.384379 -0.447188 0.169096 0.133267 -0.343039 -0.308385 -0.188234 -0.280636 0.360935 0.249714 0.117412 -0.139142 0.003379 -0.490958 0.350504 -0.447312 0.406030 -0.335128 -0.679973 -0.486888 -0.185941 -0.387949 -0.307625 0.463779 -0.215378 -0.195047 0.251892 -0.108378 -0.153063
even 0.063957 0.184371 -0.098643 -0.066800 -0.100645 0.014425 0.303455 -0.168288 -0.147507 0.161404 -0.085484 -0.130253 -0.299723 -0.209164 0.209796 0.391021 -0.272981 -0.023295 -0.141381 -0.173503 -0.132036 0.450648 0.134019 -0.107062 -0.131733 0.086262 -0.139110 0.040533 -0.158883 -0.197542 -0.483689 -0.133146 -0.341923 0.381236 -0.225648 0.080865 -0.396984 0.564747 0.099727 -0.242339 -0.093769 -0.086172 -0.418559 0.066847 0.180291 -0.303804 -0.311288 0.084453 0.174597 -0.149026 0.222498 -0.035246 -0.049180 -0.106730 0.053593 -0.192995 -0.183786 -0.227620 -0.017894 -0.294825 0.502195 0.214550 -0.237684 0.216037 0.268684 -0.012517 0.284412 0.381545 0.170293 0.313811 -0.505828 -0.205806 -0.132916 0.197742 -0.043852 -0.163040 -0.409100 -0.176615 -0.190676 0.181519 -0.076230 0.117154 -0.201411 -0.191660 -0.150221 0.179109 -0.018234 0.181863 0.235503 -0.300728 -0.409952 0.197125 -0.070857 0.283413 -0.316314 0.196369 -0.484106 0.223431 0.118778 -0.233912
go 0.557280 0.152134 0.057799 -0.251460 -0.181875 0.240721 -0.210756 -0.393365 -0.178318 0.359989 0.047759 0.024427 -0.186012 -0.140579 -0.103788 -0.308741 0.005976 0.063867 -0.145127 0.257866 -0.280039 -0.266455 0.526172 0.255102 -0.164113 0.042437 0.199557 -0.285194 -0.268589 0.352489 -0.192996 0.418364 -0.215291 -0.142044 -0.052838 -0.071268 -0.220677 0.086103 -0.036414 -0.003927 -0.451804 -0.222157 -0.139701 -0.103987 0.098131 0.095495 0.265748 -0.018756 0.491883 0.425752 0.100479 -0.085585 0.262716 -0.159034 -0.081864 -0.021906 -0.021306 0.081615 -0.065676 -0.103997 0.196579 -0.044654 -0.182212 0.076464 -0.208498 -0.275534 0.159050 0.125965 -0.061047 -0.047376 -0.175186 -0.066894 -0.232142 0.144199 -0.132678 -0.164586 -0.210191 -0.118081 -0.062672 0.377990 0.430928 0.279056 0.138206 0.129290 -0.458746 0.320363 -0.307087 0.073893 0.021800 -0.399333 -0.583963 0.141602 0.000172 0.120022 0.501897 -0.450492 -0.160511 0.123467 -0.155559 -0.010825
new 0.399102 0.247560 -0.182177 -0.468146 -0.042272 0.334269 0.165509 -0.199673 0.152892 0.385395 -0.058831 -0.044373 -0.353126 -0.458145 -0.170538 0.386360 0.414101 -0.182678 0.119927 0.029226 0.203379 -0.172556 0.491799 0.165602 0.570754 -0.100024 -0.197113 0.171473 -0.004458 0.002833 0.093948 0.256045 0.188292 0.554639 -0.153772 0.349065 -0.555449 0.108864 -0.145664 0.317815 -0.028639 -0.086681 -0.164320 -0.215896 0.415811 -0.134290 0.239340 0.291985 0.112454 0.075941 -0.014203 -0.025431 -0.142818 -0.189621 0.467942 -0.309712 -0.426053 0.161522 0.110270 -0.632867 0.474501 0.159821 -0.432335 -0.017314 -0.056942 0.201398 0.050937 -0.122360 -0.287914 -0.316160 0.270544 -0.059556 -0.071402 0.572298 -0.180190 -0.176865 -0.112513 -0.111993 -0.206460 -0.450383 0.212956 -0.546477 -0.225621 0.018922 -0.232437 0.182804 -0.203596 1.008567 0.388565 -0.138118 -0.501092 -0.004014 0.426591 -0.356652 0.285619 0.037214 -0.040612 0.185834 0.047097 -0.095847
food 0.803492 0.201474 0.267386 -0.236036 0.221197 0.055535 -0.386665 0.026027 0.212326 0.073827 0.283367 -0.548884 -0.144547 -0.440758 -0.254912 -0.109877 -0.213733 -0.085676 0.208832 -0.086993 -0.605779 0.133759 -0.026711 -0.199298 0.230469 -0.084706 -0.032982 -0.145744 -0.849548 -0.340695 -0.603483 0.171083 0.009114 0.364560 0.398393 0.072655 -0.170096 0.112938 0.019841 -0.316624 -0.221544 0.212122 -0.347025 0.690074 -0.052482 -0.164852 0.105388 -0.323965 -0.158295 -0.365985 -0.424102 0.416478 -0.454473 -0.479071 -0.452083 -0.146740 0.407392 0.104331 0.217077 -0.748500 0.397314 0.614978 -0.615696 0.099374 0.097783 -0.011872 0.214442 -0.474842 -0.125163 0.107760 -0.531832 -0.247020 0.128956 0.122856 -0.294666 -0.185826 -0.007056 0.085132 0.181990 0.266680 0.250041 0.075962 -0.055463 -0.351622 -0.339802 0.156482 -0.310516 0.456533 0.280047 -0.494164 -0.339553 -0.010350 -0.111833 -0.154608 0.513533 0.136666 0.087249 -0.153810 0.139447 -0.327609
only 0.221770 0.164863 -0.312753 -0.263857 0.018742 0.048218 0.347505 -0.046804 -0.036533 -0.010813 -0.343862 0.016494 0.306402 -0.066091 0.069995 0.435546 -0.074852 0.063433 0.199504 -0.373624 0.047727 0.644616 0.218682 0.160386 0.015787 -0.033824 -0.081438 -0.104794 -0.366915 -0.208425 -0.342756 -0.030638 -0.320588 -0.130159 0.002917 0.014189 -0.471509 0.159376 0.038056 -0.480931 0.232751 0.451431 -0.421593 0.116526 0.441319 -0.246350 -0.472499 0.380308 0.292037 0.322677 0.351588 0.301504 -0.000102 -0.135856 0.332552 -0.206808 -0.278086 -0.004126 -0.257608 -0.149563 0.255910 -0.062453 -0.174911 -0.072425 0.443157 -0.043758 -0.027509 0.530216 0.372936 -0.061082 -0.016914 0.057552 -0.580699 0.506720 -0.231655 -0.289539 -0.056260 -0.085729 -0.246658 0.434583 -0.041685 0.105933 0.100336 -0.143900 -0.401786 -0.133936 -0.294311 -0.084177 0.115879 -0.195661 -0.341221 -0.154625 -0.105670 -0.020928 -0.080813 -0.458731 0.085086 0.169194 -0.115494 0.058270
important 0.155094 0.026896 0.003095 -0.070402 -0.311834 0.381847 -0.311679 0.079691 0.547501 0.427596 0.222123 0.275253 -0.285824 0.021592 -0.165522 0.296911 -0.162407 0.072330 -0.151579 -0.062194 -0.088212 0.212356 0.046202 0.314825 -0.275073 -0.096100 0.432737 0.277793 -0.302495 -0.305203 -0.034746 0.083551 0.038136 0.033098 -0.066444 0.413361 -0.477116 0.459932 -0.035427 -0.509214 0.193452 0.322414 -0.232065 -0.020928 0.290594 0.182400 0.585108 0.160234 0.250093 0.137447 -0.134903 0.041934 -0.389406 -0.351079 0.010881 0.361827 -0.014760 0.054084 -0.050018 -0.247926 0.404226 0.063685 0.021995 0.222134 0.191251 -0.155904 -0.265143 0.324987 -0.138109 -0.084891 0.164875 -0.311287 -0.322998 0.057053 0.238243 -0.391128 -0.013746 0.063347 -0.007030 0.194726 0.216556 -0.084257 -0.216322 0.096482 -0.881919 0.093427 -0.317172 0.139046 0.330842 -0.237103 -0.261678 -0.290130 0.163621 -0.440160 -0.198887 -0.189852 0.085497 0.203156 -0.088399 0.080698
what 0.255691 0.403469 0.032196 0.083606 -0.205790 0.304860 0.004763 -0.455572 -0.180542 0.263082 -0.007527 0.012074 -0.168372 -0.044223 -0.027787 0.235666 0.078747 0.007203 0.253099 0.304096 -0.340397 -0.037334 0.268580 0.323624 -0.074840 0.082510 0.216264 0.163108 -0.136524 0.081450 -0.235385 0.161415 -0.101568 0.093513 0.005595 0.100140 -0.599831 -0.132406 0.119027 -0.088366 0.009060 -0.035014 -0.126010 -0.271752 0.197807 0.166941 -0.153530 -0.173490 0.133909 0.270813 -0.002787 -0.181453 0.212013 0.243599 -0.006180 -0.024463 -0.134748 0.243560 -0.098824 -0.230168 0.584356 0.176811 0.073937 -0.152604 0.241368 -0.234284 -0.298662 0.200659 -0.139135 0.186791 0.053542 -0.259368 -0.558341 0.240884 0.080652 -0.186118 0.040206 -0.026868 0.053482 0.287093 -0.017978 0.109548 -0.050517 0.081141 -0.388395 0.210172 -0.124167 -0.194327 0.424102 -0.255678 -0.145013 0.388701 0.198205 0.047499 0.311518 -0.497967 -0.220935 0.235948 0.263393 0.133743
has -0.028626 0.151727 0.058672 -0.376341 0.016476 0.010901 0.249639 -0.171276 0.024724 0.130936 0.108998 -0.265308 -0.420422 0.014517 -0.423445 0.369225 -0.004721 0.158790 -0.379256 0.003668 -0.238044 0.190652 0.528098 -0.185078 -0.025555 0.005787 0.168433 0.374343 -0.520522 -0.173701 -0.454715 -0.080010 0.023398 -0.089357 0.288576 0.150051 -0.390637 0.058858 0.139760 0.131557 0.098077 0.015245 -0.331840 -0.265724 0.600796 -0.420428 0.110088 0.408193 0.240449 -0.159832 0.415973 -0.115045 0.260845 -0.041871 0.363609 -0.122211 0.277741 -0.169047 -0.056730 -0.391809 0.072855 0.043400 -0.025320 0.138722 0.108191 -0.525401 -0.229843 0.308851 0.005666 -0.105262 -0.053470 0.505833 -0.039967 0.159328 -0.504494 0.256122 -0.394709 0.051835 -0.248525 -0.007535 -0.043345 -0.337174 -0.250448 0.396203 -0.486565 0.073771 -0.220198 0.198219 -0.011124 -0.365444 -0.217721 -0.572770 -0.217571 -0.065780 -0.382918 0.409615 0.107721 0.279116 -0.132548 -0.049275
just 0.178082 0.195530 -0.053288 -0.052084 -0.073916 0.265126 0.078438 -0.308356 -0.040067 0.308178 -0.076833 -0.068596 0.092559 -0.010612 0.132026 0.079828 0.085488 -0.074016 0.237914 -0.106983 -0.193559 -0.052981 0.165127 -0.076712 0.032220 -0.012482 0.026923 0.057061 -0.303421 -0.047052 -0.139869 0.280926 -0.354742 -0.071497 -0.156858 -0.068575 -0.229352 0.128990 0.008784 -0.303756 -0.142022 0.119532 -0.267615 0.080190 0.202522 -0.255990 -0.140173 0.025352 0.450279 0.355982 0.201976 -0.070985 -0.009263 -0.197337 0.105691 -0.032172 -0.111651 0.155222 -0.224792 -0.095107 0.273015 0.084207 -0.243208 0.135346 0.370225 -0.193094 0.120208 0.151389 -0.003805 -0.131808 0.010804 -0.143220 -0.191169 0.295698 -0.179892 -0.161665 -0.050794 -0.130811 0.004243 0.250152 0.223268 0.071494 -0.117670 -0.120704 -0.173513 0.086406 -0.408446 -0.084283 -0.098208 -0.391583 -0.320384 0.024390 0.220704 -0.084020 0.315087 -0.447019 -0.128670 0.365606 -0.236024 0.028275
used 0.614139 0.051275 -0.258332 -0.416921 0.367491 0.013885 -0.334626 0.192806 0.263960 0.123108 0.147073 -0.007859 -0.198283 0.213947 -0.319354 0.434171 0.084356 -0.230013 -0.271656 -0.012988 -0.296329 -0.343327 -0.043824 0.218573 -0.044112 -0.618461 0.145165 -0.000500 -0.561707 -0.065370 -0.316324 0.031459 -0.142040 0.172881 -0.066436 -0.138169 -0.214690 0.264826 -0.146050 -0.280561 0.188592 0.331732 0.143511 0.209919 0.520937 0.001340 -0.048798 0.223317 0.312471 -0.113107 -0.065161 0.199400 -0.107484 -0.333020 -0.053808 -0.369119 0.339211 0.118324 0.125021 -0.274014 0.006998 0.050226 -0.483404 -0.247762 0.191703 -0.212382 0.241719 0.372539 0.221712 -0.711678 0.030618 -0.278746 -0.541486 0.412182 -0.335024 -0.308017 -0.159811 -0.084719 -0.307519 -0.172135 0.042403 -0.087886 0.288382 0.239034 -0.156482 0.029601 -0.171612 0.472807 -0.326109 0.087037 -0.397044 -0.526309 -0.211970 -0.246155 0.230136 -0.179514 -0.145561 0.027126 -0.211953 -0.338159
me -0.002990 0.422420 0.492895 -0.632253 -0.492695 -0.016943 0.091478 -0.462356 0.089214 -0.141676 -0.105567 0.147459 -0.496251 0.100050 0.001523 0.210363 -0.181487 0.274061 0.043599 0.301615 -0.471828 0.323980 0.416090 0.230513 -0.152699 0.110047 0.589675 -0.162415 -0.195190 0.342335 -0.650877 -0.024367 0.464002 0.234508 -0.258233 0.348630 -0.490196 0.266399 0.096172 0.043597 -0.068983 0.322408 -0.604208 0.184713 0.554451 -0.230647 0.035391 -0.332014 0.398064 -0.265010 0.247333 0.116039 0.088715 -0.186028 -0.068331 0.322857 0.112694 0.266508 0.032979 -0.284498 0.429855 0.504452 -0.080919 -0.334435 0.124754 -0.239860 -0.041351 0.624139 0.330928 -0.214061 -0.311408 -0.330950 -0.560960 -0.110687 -0.152093 -0.008075 -0.458947 -0.223485 -0.070873 0.481524 0.288255 -0.042416 0.126217 0.643240 -0.585638 -0.042858 -0.214348 -0.084309 0.120688 -0.503680 -0.230386 -0.142163 -0.190977 -0.218844 -0.286300 -0.484775 -0.018677 0.290706 -0.100494 0.388279
spend 0.482663 0.150161 0.261134 -0.382953 0.043124 -0.015535 -0.001957 -0.100983 0.012925 0.314779 0.080177 -0.061949 -0.331691 0.198642 -0.148261 -0.096535 -0.242534 0.073553 0.093727 0.003670 -0.261376 0.088295 0.065082 0.180797 -0.038050 0.052397 0.692881 0.249210 -0.621140 -0.174906 -0.247389 0.087600 -0.083184 -0.146371 -0.294536 0.060948 -0.299267 0.170068 0.121206 -0.560116 0.127626 0.281942 0.127072 0.407290 0.335110 -0.300903 -0.169035 0.049531 0.569096 0.019370 0.260777 0.156984 -0.034946 -0.424671 -0.133321 -0.231302 -0.156406 0.062779 -0.258002 -0.522126 0.249023 0.001675 -0.320970 0.129854 -0.066525 -0.431845 0.210707 0.130538 0.151047 -0.270093 0.197870 -0.177684 -0.366429 0.333632 -0.167061 -0.456083 -0.149761 -0.346225 -0.201572 0.554057 0.525640 0.207981 -0.058728 -0.023609 -0.575303 0.103941 -0.611126 0.117706 -0.492125 -0.200756 -0.150569 0.268839 -0.170069 0.198897 0.329615 -0.197064 -0.274706 0.166020 -0.298972 -0.125496
national 0.298527 0.557388 0.167898 -0.095764 0.121535 0.161833 -0.015261 -0.072299 0.277030 0.179640 0.213272 0.214134 0.152170 0.526010 -0.273337 0.330066 -0.232753 -0.014328 -0.177156 -0.218042 0.243192 0.362605 0.322391 -0.031518 0.168169 -0.089520 0.110792 -0.108148 -0.674029 -0.030327 -0.497594 0.184414 0.058576 -0.166668 -0.182531 -0.436826 -0.440245 0.290583 -0.237611 -0.816485 0.677898 0.671248 -0.418866 0.409938 0.874770 -0.409987 -0.378008 0.541546 0.702069 0.389788 0.633143 0.815799 0.228412 -0.393120 -0.000059 -0.180080 -0.031039 0.441036 -0.305841 -0.500621 0.201650 -0.342203 -0.711486 -0.192551 0.126914 -0.115021 0.054998 0.657682 0.121735 -0.278844 0.238792 -0.521920 -0.919353 0.494129 -0.202325 -0.495998 0.225079 -0.198951 -0.287171 0.563203 0.149009 0.066716 0.052022 -0.075138 -0.591390 -0.202946 -0.661065 0.203009 0.111795 -0.175304 0.178575 0.163453 -0.428853 -0.134915 0.245239 -0.898098 0.228244 0.358701 -0.118526 0.268243
its 0.201839 0.111979 0.071220 0.001972 -0.043791 -0.019980 0.054400 -0.012202 0.131094 0.104589 -0.007873 -0.158997 -0.008372 -0.037025 -0.186068 0.116628 -0.395673 0.090195 0.104907 0.082931 -0.202514 0.143478 0.189617 -0.103064 0.055802 -0.178048 0.192634 0.319523 -0.417295 -0.069548 -0.269304 0.308786 -0.176338 -0.406830 0.321584 -0.184160 -0.273460 0.019593 0.293747 -0.114758 0.050716 0.261311 -0.402797 -0.064480 0.170153 -0.340281 -0.018912 0.211294 0.424163 0.345554 0.320801 0.142891 0.045238 -0.104950 0.096132 -0.031154 -0.210840 -0.024061 0.062589 0.015830 0.150666 0.131979 -0.207236 0.209358 0.392043 -0.305178 -0.124399 0.388253 0.115291 0.241298 0.021141 -0.071472 -0.507915 -0.101399 -0.242764 0.233343 -0.075957 -0.278797 0.223384 0.259497 0.377115 -0.073409 -0.219880 -0.255550 -0.518351 -0.289374 -0.200615 -0.269398 0.200962 -0.577276 -0.220209 -0.279218 0.052336 0.111343 0.124885 -0.377157 0.102974 0.034439 0.020238 0.168922
budget 0.317756 0.403227 -0.142401 -0.197607 -0.154409 0.271544 -0.165968 0.097787 0.170500 0.075656 0.093976 0.238923 0.257094 0.123429 -0.129911 0.400277 -0.294313 0.042700 -0.044814 -0.377385 0.238630 0.387506 0.200789 0.044490 0.107636 0.128063 0.146448 -0.218070 -0.622336 -0.161020 -0.723860 0.019211 -0.067487 -0.096018 -0.014325 -0.227426 -0.287744 0.205531 -0.380517 -0.720310 0.506537 0.540946 -0.354445 0.420225 0.365835 -0.364336 -0.359879 0.461092 0.726486 0.421800 0.458750 0.835486 0.177719 -0.264983 0.140958 -0.052129 -0.035431 0.183061 -0.420339 -0.603754 0.265612 -0.186197 -0.267908 -0.165239 0.257443 0.006808 0.114167 0.478485 0.165436 -0.201617 0.101920 -0.300068 -0.893358 0.509450 -0.208800 -0.371604 0.045880 -0.281975 -0.231500 0.366130 0.105653 0.104395 0.205593 -0.013086 -0.526571 -0.180188 -0.650438 0.341170 -0.166733 -0.185644 0.199038 0.279907 -0.360640 0.103106 0.006926 -0.723965 0.268929 0.388793 0.003583 0.163492
out 0.443996 0.386787 0.102422 0.010719 0.004911 -0.051495 0.234229 -0.291110 -0.022559 0.104348 0.077918 0.112293 -0.195085 -0.092075 -0.130349 0.264620 0.198287 0.133218 0.037026 0.204983 -0.423999 -0.219288 0.121727 0.025749 0.238426 0.122067 -0.029012 -0.167512 -0.387006 0.032918 -0.047736 0.372955 -0.024279 0.089936 0.081525 -0.241625 -0.487075 0.047708 -0.292938 0.080572 -0.232170 -0.267608 -0.341298 -0.311937 -0.201160 -0.101517 0.070087 0.155259 0.369902 0.158304 0.023754 0.075846 -0.054522 -0.047928 -0.218214 0.077796 -0.167763 0.025244 -0.323904 -0.207087 0.135672 0.352920 -0.499635 0.076308 0.160459 -0.252010 -0.178453 0.112962 0.015779 -0.221064 0.084618 -0.221968 -0.347527 0.071506 -0.256021 -0.212589 -0.333866 0.130894 -0.091208 0.083336 0.282378 0.272464 -0.354801 -0.073363 -0.179985 -0.001749 0.039420 0.091828 0.259151 0.031740 -0.297545 0.093879 0.173366 -0.008627 0.239777 -0.354848 -0.118305 -0.001761 0.175350 0.286392
get 0.414706 0.226317 0.093905 -0.049361 -0.343829 -0.127131 -0.134523 -0.122660 -0.148862 0.368246 -0.144461 -0.409656 -0.051437 -0.144028 0.233582 -0.114543 -0.104134 -0.120599 -0.028873 -0.200580 -0.300733 0.134696 0.182478 0.064000 0.244021 -0.057314 0.205122 0.176636 -0.068820 -0.077934 -0.038149 0.329731 -0.187892 -0.069346 0.126023 0.091918 -0.321618 0.160244 0.123885 -0.119812 -0.233238 -0.189198 -0.021363 -0.057282 0.036286 -0.209685 -0.185244 -0.039549 0.239272 0.333053 0.219615 -0.288807 -0.166265 -0.055465 -0.055028 -0.280457 -0.285539 -0.238077 -0.138313 -0.256035 0.423915 0.179065 -0.296130 0.071590 0.333851 -0.334030 0.385330 0.066709 0.162316 -0.064334 -0.215895 -0.083272 -0.069931 -0.055987 -0.445369 -0.302371 -0.102426 -0.186583 -0.112213 0.325125 0.284249 0.166722 0.033587 -0.167184 -0.060781 0.112922 -0.291977 -0.024257 0.195904 -0.200069 -0.590143 -0.093983 0.211315 0.179245 0.383107 0.146595 -0.395647 0.028040 -0.064926 0.007416
these 0.337928 -0.293529 -0.317040 -0.454687 -0.277388 -0.025985 0.344754 0.101450 -0.152183 -0.665771 -0.059983 -0.102802 0.146750 -0.004241 -0.236520 0.405766 0.112278 -0.189893 0.221547 -0.241187 -0.218002 0.409503 0.236630 0.376998 0.161203 -0.311604 0.500726 0.091745 -0.424577 -0.311839 -0.285426 -0.015075 -0.470863 -0.126285 -0.104503 0.243492 -0.241054 0.236993 -0.113403 -0.006903 -0.079370 -0.173976 -0.196341 -0.144582 0.483470 -0.126942 -0.084942 0.154894 -0.047312 0.168839 -0.086837 -0.110787 0.102780 0.238265 0.023474 0.052580 -0.241978 0.150223 0.439999 -0.194081 -0.004445 -0.099049 -0.364753 0.251525 0.410306 -0.028287 -0.212510 0.323078 0.196262 -0.275798 -0.344850 0.278255 0.133954 0.207517 -0.027507 -0.030889 -0.068952 -0.119606 -0.089175 -0.190802 0.435705 -0.330158 0.117857 0.238572 -0.252915 0.505870 -0.231527 0.382688 0.129289 -0.586300 -0.634894 -0.245186 0.420886 -0.227629 0.211099 -0.153316 -0.139312 0.095640 0.479862 -0.463245
their 0.291340 -0.087584 0.114212 -0.165519 0.108068 0.031238 0.127013 -0.580573 0.455952 -0.054924 0.396075 0.041269 -0.257268 -0.130018 -0.336334 0.255755 0.055289 -0.219025 0.276541 0.026297 -0.508663 -0.043272 0.468837 -0.130451 0.177280 0.017945 -0.645532 -0.407473 -0.522253 0.166905 -0.278570 0.203760 -0.512023 -0.154543 0.419499 -0.185813 0.088161 -0.130230 -0.134119 -0.216520 -0.590893 -0.239022 -0.226616 0.726026 0.161785 -0.124495 0.250183 -0.071150 0.089904 0.022824 0.149369 0.070442 -0.175657 -0.256669 0.283700 0.181852 0.324878 0.083999 0.195811 -0.409466 0.412723 0.096986 -0.351784 0.091598 0.215041 0.082276 0.215457 -0.078372 0.109962 0.294288 -0.150701 0.359399 0.090660 0.450401 -0.552870 0.038601 -0.200229 0.027328 0.203112 0.344175 0.075824 0.024886 0.029465 0.114558 -0.488556 -0.021682 0.098451 0.028916 0.279070 -0.131247 -0.467834 0.134576 0.323576 -0.046267 0.239978 -0.031850 -0.355072 0.077198 -0.136061 -0.290144
good 0.033433 0.059361 0.167508 -0.010505 -0.163921 0.461381 -0.331191 -0.211806 0.134670 0.463740 0.207502 -0.089853 -0.067423 -0.098378 -0.106523 0.070819 -0.149541 0.147966 0.335925 0.090996 -0.411119 0.165037 0.177543 0.014082 0.069313 0.106961 0.425590 0.285250 -0.284007 0.044851 -0.370703 0.204697 0.184784 0.173331 -0.018889 0.295840 -0.316612 0.248125 0.081342 -0.274018 0.005887 0.072560 -0.360509 -0.031089 0.468781 0.054399 0.182124 0.004243 0.203922 -0.049946 0.105856 -0.057572 -0.086681 -0.188934 0.169532 0.106833 -0.374213 0.324885 0.072418 -0.182774 0.455122 0.162424 0.101361 0.065212 0.188116 0.091353 0.002476 0.488556 0.011096 -0.023144 0.001583 -0.169005 -0.244499 0.105181 0.134370 -0.052874 -0.161267 -0.100846 0.014337 0.219683 0.317171 -0.366890 -0.251355 -0.167455 -0.627493 0.177369 -0.078661 0.032839 0.547038 -0.372072 -0.438310 -0.156160 0.339949 -0.370315 -0.141457 -0.223052 0.496847 0.123348 0.239521 0.137085
lot 0.236214 0.295708 0.027307 -0.238429 0.457371 0.292250 0.210295 -0.356844 -0.184658 0.224602 0.372356 0.097623 -0.095204 0.047646 -0.373842 -0.160854 -0.132917 0.088806 0.025948 -0.134016 0.106188 0.188902 0.229621 -0.123187 0.374279 -0.113873 0.228067 -0.160843 -0.113796 -0.026353 -0.337341 0.198131 -0.209907 -0.181337 -0.024057 0.321738 -0.351487 0.382448 -0.171903 -0.228651 0.054081 0.135767 -0.233451 0.021525 0.137941 -0.307475 -0.400978 0.159054 0.154988 0.175577 -0.084759 0.077181 -0.208719 0.102765 0.324529 -0.173382 -0.287947 -0.207543 -0.288674 -0.677078 0.331841 0.203475 -0.222068 0.293431 0.327485 -0.125125 -0.026910 0.459547 -0.293054 -0.166022 -0.138927 0.233973 -0.201219 0.314837 -0.068497 -0.297250 -0.362540 -0.399883 -0.200035 -0.101942 0.245826 -0.124731 -0.069732 -0.063567 -0.364750 -0.139851 -0.295211 -0.085639 0.240251 -0.068106 -0.309173 -0.260667 0.004986 -0.136050 -0.011102 -0.300393 -0.052840 0.275043 -0.027330 0.057382
world 0.632247 0.332489 0.082703 -0.062342 -0.322141 0.119501 -0.327013 0.058006 -0.100977 0.401481 -0.256552 -0.297878 0.199062 0.035403 0.086875 0.224132 0.035239 -0.011928 0.207169 -0.150785 -0.456347 0.191918 0.195298 0.033077 0.234439 -0.367387 0.306099 0.031222 -0.083372 -0.385519 -0.303718 0.281314 -0.176871 0.500909 -0.105727 -0.021082 -0.444010 0.300765 -0.038430 -0.226554 -0.127754 -0.163033 -0.201368 -0.380008 -0.430033 -0.071164 0.186064 0.077703 -0.207962 0.133795 -0.031364 -0.004837 -0.017378 -0.222813 -0.322161 0.036362 0.118926 -0.334716 0.049933 -0.630629 0.071156 0.208128 -0.120843 0.073242 0.244011 -0.387044 -0.149376 0.110341 -0.158995 -0.437102 -0.233362 -0.431365 -0.625099 -0.221982 -0.040838 -0.520109 -0.137654 -0.165002 -0.146175 -0.047480 0.112060 0.111366 -0.000825 0.047543 0.001906 -0.154101 -0.048015 -0.173700 0.189472 -0.256613 -0.405102 -0.053912 0.116979 0.137385 -0.138866 -0.204789 -0.187794 -0.020800 -0.009240 -0.146079
reason -0.279431 0.318957 0.127316 0.077502 -0.450990 0.058820 -0.021535 -0.217912 0.316022 0.308582 0.021376 -0.051330 -0.064877 0.014279 0.119112 -0.143124 -0.117686 0.051507 0.137463 -0.089390 -0.228108 0.165842 0.608207 0.400232 -0.193609 -0.396703 0.411408 -0.177547 -0.368165 -0.288250 -0.472629 -0.041810 0.151436 -0.173110 -0.203278 0.038192 -0.210933 0.596378 0.016862 -0.623853 -0.438047 0.213639 -0.673409 -0.003397 0.416624 0.250751 0.208048 0.284073 0.119954 0.008337 -0.101488 0.271215 -0.314990 -0.438799 0.321888 0.191602 0.412376 0.176822 0.484771 0.131015 -0.095261 0.145707 0.131336 0.030273 0.076120 -0.457058 0.074284 0.325257 0.160452 -0.512521 -0.368837 -0.015493 -0.148718 0.124107 0.195128 -0.480324 -0.412006 0.512407 0.057161 0.042202 0.629590 -0.248104 -0.080045 0.090419 -0.131322 -0.147490 -0.641030 -0.147727 -0.290460 -0.170929 -0.466740 0.034217 -0.056896 -0.860123 0.274665 -0.536673 -0.029357 0.079169 -0.318139 0.056188
make 0.460693 0.333065 0.166626 -0.233788 -0.087889 0.157766 0.003054 -0.100160 -0.080541 0.197467 -0.018573 -0.330648 -0.115161 -0.253488 0.053860 0.162638 0.161198 -0.275169 -0.241610 -0.123202 -0.216862 0.110458 0.329299 -0.017469 -0.125783 -0.039349 0.233394 0.260306 -0.350826 0.174115 0.035826 -0.044843 0.114332 0.024765 -0.195129 0.300979 -0.419124 0.179459 0.035562 0.168335 -0.129513 0.238024 0.032784 -0.011998 0.326105 -0.476024 0.140201 0.319054 0.138716 0.036078 0.156554 -0.207295 0.014088 -0.077872 0.137048 -0.372166 -0.271509 0.085730 0.069163 -0.320094 0.460642 0.248750 -0.221455 0.115437 0.070161 0.132981 0.105555 -0.131760 -0.089870 -0.471176 -0.063575 0.100924 -0.030214 -0.008307 -0.420299 0.040875 -0.171235 0.062881 -0.086108 -0.191004 0.272054 -0.327151 -0.207215 -0.112005 0.081097 0.254802 -0.294088 0.599515 0.055549 -0.092204 -0.644868 -0.346954 0.313006 -0.047531 0.378407 -0.160355 -0.065444 -0.248359 0.100413 0.054902
going 0.484367 0.138431 0.162024 -0.119057 -0.102306 0.280926 -0.079099 -0.286720 -0.063489 0.237462 0.059957 0.222346 0.107000 -0.044548 0.043816 0.024713 -0.218569 0.011188 -0.182842 0.172416 -0.272001 -0.184039 0.205357 0.035588 -0.088040 0.045872 0.260625 0.011567 -0.210451 0.140327 -0.363322 0.393523 -0.190217 -0.051280 0.044242 -0.244867 -0.154215 0.053152 0.007732 -0.280281 -0.173704 -0.283634 -0.132189 -0.231359 -0.170637 -0.032624 0.274653 0.122179 0.479683 0.337110 -0.032580 -0.071248 0.105573 0.031640 -0.210896 0.261083 0.068039 -0.034436 -0.179279 -0.218056 0.347877 -0.040745 -0.379246 -0.110861 0.156378 -0.571394 -0.102228 0.340513 -0.032773 -0.032462 0.165800 -0.077806 -0.363270 0.168069 -0.159983 -0.012934 -0.136746 -0.328184 -0.090214 0.327484 0.189909 0.084086 0.083397 0.037306 -0.393212 0.103214 -0.179438 -0.106942 0.031232 -0.156889 -0.449155 0.185389 0.356182 0.066391 0.339144 -0.522073 -0.317532 0.283328 -0.191254 -0.092782
medicine 0.402401 0.231757 0.189789 -0.032585 0.098530 0.026293 -0.136602 -0.249680 0.280119 0.070316 0.295068 -0.510209 -0.298229 -0.338725 -0.122363 0.154781 0.142402 -0.057907 -0.111451 0.044299 -0.137849 0.050511 0.471238 -0.089675 0.484071 -0.164873 -0.317805 0.110386 -0.464957 -0.301820 -0.390465 0.098823 -0.104861 0.306285 0.094874 0.274739 0.136124 0.065748 0.010536 -0.313576 -0.136436 0.398551 -0.632818 0.340086 0.300738 -0.020168 0.029806 0.070697 -0.132302 -0.207437 -0.271653 -0.080811 -0.220049 -0.383934 -0.601643 -0.002082 0.191007 0.107015 0.130469 -0.770512 0.508528 0.449986 -0.135730 0.275641 0.213658 0.251762 0.182463 -0.026466 -0.366910 -0.117184 -0.816927 0.163847 0.053946 0.255400 -0.325630 0.135850 -0.072401 0.275804 -0.299056 0.352005 0.250873 -0.193357 -0.213055 0.083086 -0.467854 0.291945 -0.277025 0.758154 0.368901 -0.138789 -0.363572 -0.093349 -0.118754 -0.347168 -0.060564 0.407297 0.042619 -0.251977 -0.202467 -0.383904
education 0.369293 0.346437 0.397791 -0.087834 0.217243 0.285891 -0.097481 -0.137692 0.286775 0.230705 0.400332 -0.103509 -0.409076 -0.106623 -0.346835 0.520428 -0.343747 -0.125659 -0.238602 -0.162051 0.219823 0.104486 0.252761 0.314270 0.286517 -0.348740 0.021754 0.079951 -0.637529 -0.186731 -0.307572 -0.200243 -0.305804 0.014506 -0.306122 -0.023292 -0.487981 0.238270 -0.227546 -0.638530 0.615680 0.353312 -0.139621 0.126155 0.279245 -0.377441 -0.012215 0.282864 0.126232 0.159725 0.172945 0.264697 -0.200258 -0.367941 -0.285221 -0.352034 -0.139402 0.004997 0.184092 -0.679025 0.134858 -0.193867 -0.430792 0.236837 0.052090 0.066440 -0.157131 0.121772 -0.052536 -0.226304 0.027639 -0.190750 -0.551808 0.128116 -0.140885 0.065959 0.034553 -0.016777 -0.267395 0.046929 0.042876 -0.159658 -0.358802 -0.090866 -0.252437 0.251524 -0.163223 0.688197 -0.097251 0.153793 0.063120 0.305368 -0.341530 0.200304 -0.068594 -0.104591 -0.251671 0.078838 -0.299388 0.042756
one 0.041275 0.173366 -0.181586 0.067439 -0.157883 0.155674 0.259766 -0.115803 0.155941 0.189946 0.102334 -0.049085 -0.068270 0.095979 -0.143405 -0.345262 0.026055 0.146799 0.296870 -0.038372 -0.187771 -0.040954 0.346173 0.421165 0.017086 -0.092985 -0.070784 -0.095461 -0.519593 -0.147831 -0.426348 0.213477 0.165061 0.110236 -0.265849 0.050253 -0.063622 -0.233972 0.270015 -0.419441 -0.125349 -0.029750 -0.365578 0.213174 0.534852 -0.001178 0.227645 -0.076766 -0.020924 0.243436 0.104710 0.024960 0.016231 -0.114456 0.122425 -0.065568 -0.062330 -0.054038 0.210948 -0.077713 0.274542 -0.094108 0.120586 0.315971 0.381327 -0.074374 -0.044921 0.394146 0.070440 -0.247999 -0.132109 0.095275 -0.115104 0.237181 -0.462240 -0.220348 0.006766 0.089259 0.226456 0.041404 0.386723 0.170626 -0.031771 -0.338088 -0.400460 -0.237357 -0.153411 -0.177786 0.168429 -0.164028 -0.468559 0.064824 -0.077446 -0.338091 -0.022662 -0.431657 0.149571 0.107691 -0.491255 0.040599
weather 0.512222 0.263350 0.113665 -0.348988 -0.482751 0.207434 -0.222960 -0.157483 0.010805 -0.282779 -0.164281 -0.393212 -0.147787 -0.373940 -0.222216 0.080484 0.185934 0.031280 -0.661544 0.153688 -0.509501 -0.202037 0.410223 0.518938 0.327631 -0.059128 0.415057 0.987206 -0.460546 -0.071103 -0.858909 0.212806 0.149778 0.275007 0.213842 0.181511 -0.672540 0.169386 0.082166 -0.221954 -0.029394 -0.124038 -0.146484 -0.246397 0.472608 0.142944 0.236141 0.344327 -0.288286 0.621804 -0.186043 -0.056624 0.212707 0.394943 -0.530075 -0.271885 -0.380244 0.430626 -0.107660 0.004395 0.527892 0.494937 -0.464937 -0.121400 0.093888 0.273201 0.347318 0.045636 -0.227107 0.013961 -0.473260 -0.282949 -0.352950 -0.321952 -0.044695 0.102888 0.489513 -0.005829 0.176498 0.211534 0.054339 -0.040347 -0.249286 -0.171868 -0.167011 0.408888 0.085500 0.110055 0.367257 -0.026905 -0.257561 -0.286420 0.216489 -0.054628 0.125813 -0.180979 0.010856 0.083388 0.487404 -0.456750
my -0.049629 -0.003632 0.517236 -0.117059 -0.298434 0.251365 -0.151623 -0.295998 0.390055 0.072559 0.068120 0.188044 -0.064721 0.221452 0.269774 -0.035015 -0.007330 0.043294 0.598750 -0.022462 -0.537099 0.268424 0.639057 0.500761 -0.295861 0.072836 0.357688 0.039011 -0.674084 -0.031180 -0.361754 0.270183 0.410440 -0.160723 -0.243566 0.140669 0.038120 -0.020109 -0.049893 -0.611412 -0.204730 -0.025649 -0.386204 0.193118 0.555675 0.065877 0.297783 -0.341286 0.045439 0.104931 0.171844 0.108639 -0.126837 -0.203621 -0.178737 0.344076 0.289993 0.354753 0.756340 -0.178567 0.364460 -0.070207 0.201864 0.379003 0.135007 -0.138226 -0.141659 0.300091 0.226123 -0.350369 -0.196832 -0.117531 -0.198262 -0.058500 -0.172327 0.078438 -0.043321 -0.037025 0.282815 0.173188 0.276902 0.198860 -0.206763 -0.064947 -0.433131 0.060946 -0.013090 -0.258009 0.106693 -0.587971 -0.493476 0.172055 0.137957 -0.481553 0.187241 -0.558186 0.002219 0.008068 -0.438325 0.070065
live 0.610146 0.537260 0.755483 -0.145090 -0.013802 0.280090 0.161345 -0.173230 -0.012633 0.527908 0.309877 -0.154583 0.430477 -0.481302 -0.043908 -0.063935 0.017804 -0.268066 0.366427 -0.277312 -0.033889 0.423811 0.310077 0.324574 0.126063 -0.364468 0.214125 -0.121434 -0.292414 -0.175771 -0.319350 0.052723 -0.371700 -0.097423 -0.301927 0.005237 -0.409907 0.194230 0.013120 -0.130657 -0.738335 0.061599 0.040270 -0.029245 -0.088666 -0.235541 0.380094 0.154934 -0.440059 0.188916 -0.054510 0.252941 0.143378 -0.230988 -0.253611 -0.470678 0.115291 -0.384646 0.068151 -0.446702 0.290822 0.265098 -0.123706 0.043780 -0.177603 -0.453282 0.016200 -0.142737 -0.132118 -0.293750 0.110309 -0.269760 -0.361912 -0.025355 -0.472930 -0.577781 -0.226906 0.387803 0.118459 0.319876 0.219232 0.680385 -0.083551 -0.103797 -0.222949 0.041482 -0.408117 -0.133509 0.212904 0.255214 -0.361609 0.035193 -0.005101 -0.136523 0.137386 -0.055099 -0.442095 0.108097 -0.326223 -0.570555
believe -0.170794 0.215586 0.353634 -0.347726 -0.094562 -0.356835 -0.010255 -0.005481 -0.268792 0.218901 0.007679 -0.007791 -0.412898 0.095378 0.098242 0.354366 0.028330 0.283738 0.080827 -0.182539 -0.356831 0.128773 0.462446 0.192017 0.150403 0.049793 0.597848 0.398726 -0.293728 -0.037395 -0.098128 0.112555 0.088881 0.050934 -0.036018 0.480983 0.159482 0.491481 -0.493798 -0.683035 -0.266601 -0.143408 -0.218783 -0.150621 0.112923 -0.204593 -0.194746 0.150445 0.211812 -0.037508 0.370719 0.207347 -0.262579 0.262448 0.173797 -0.209734 0.187522 0.356814 0.300172 -0.013152 -0.209457 -0.003659 -0.051032 -0.050720 0.133362 -0.666132 -0.293546 0.083152 0.117508 -0.718487 -0.504436 0.080251 -0.687598 0.101210 0.029933 -0.397217 -0.688806 -0.506426 0.215814 -0.120594 0.138344 -0.039711 -0.064964 0.123363 -0.413076 -0.402311 -0.205956 0.337248 -0.276509 -0.716815 -0.389156 -0.057713 -0.127847 -0.556926 0.515356 -0.405324 0.080366 0.188010 -0.067329 0.568706
them 0.376929 0.089087 -0.173235 -0.372149 -0.106835 -0.123302 -0.173740 -0.307236 0.022300 -0.129171 0.068707 -0.143072 0.004588 0.003726 0.302264 -0.019655 -0.162021 -0.185833 0.182571 0.009910 -0.462445 -0.003623 0.125398 -0.096461 0.140885 -0.132225 -0.141682 -0.007106 -0.267879 0.138759 -0.296110 0.210848 -0.292060 0.047137 0.250428 -0.245162 -0.213952 -0.049729 -0.126955 -0.219816 -0.262109 -0.009276 -0.421098 0.179907 0.069823 -0.051790 -0.217599 -0.125002 0.116976 -0.016219 -0.134413 -0.027257 -0.147284 -0.134116 -0.068050 0.029658 0.074590 0.109698 0.173768 -0.177994 0.579328 0.171929 -0.560171 0.235877 0.404742 -0.097158 0.318714 0.048941 0.253025 0.239931 -0.507111 -0.153402 -0.165991 0.283427 -0.289444 -0.069806 -0.032865 -0.131833 0.129973 0.212722 0.246531 -0.046608 0.110983 0.004725 -0.021945 0.183882 -0.132860 0.001125 0.074634 -0.525695 -0.375313 -0.147400 0.271680 0.279061 0.505272 -0.260695 -0.292588 0.093343 0.029473 -0.250313
find 0.527962 0.349271 -0.205001 -0.113854 -0.394687 0.287618 -0.158966 -0.419071 0.075037 0.543236 0.179364 -0.328422 -0.284441 -0.146841 0.072831 -0.307618 0.263947 -0.217412 0.122768 0.148089 -0.261073 -0.393877 0.513603 -0.038226 0.231495 -0.009240 -0.021205 0.019549 0.012009 0.059219 -0.106590 0.180441 -0.014479 0.500822 -0.048898 0.051174 -0.272558 0.138518 -0.250714 0.056478 -0.627693 -0.314587 -0.072569 -0.139304 -0.257285 0.103423 0.192725 0.202580 0.316561 0.204392 0.102058 -0.017357 0.005643 -0.188790 0.590594 -0.278606 -0.043260 0.025509 0.002092 -0.357664 0.527690 0.283829 -0.381611 0.062286 -0.231235 -0.199052 0.242307 -0.368292 0.095299 -0.380310 0.029391 -0.106215 -0.206075 0.462013 0.019647 -0.514639 -0.302499 0.028460 -0.021235 -0.008170 0.088236 -0.295230 -0.254584 -0.075987 -0.196852 -0.039105 -0.290635 0.360947 0.158416 -0.086813 -0.674781 0.001282 0.173561 -0.150214 0.582753 -0.029439 -0.060490 0.218388 -0.060684 -0.186361
how 0.073291 0.404456 -0.210476 0.046882 -0.255024 -0.075469 0.119076 -0.406556 0.147616 -0.376725 -0.082759 -0.146325 -0.417650 -0.095062 0.198293 0.551190 -0.022815 -0.084578 0.130658 0.151912 -0.496944 0.009724 0.294401 0.261253 -0.026163 -0.028701 0.005420 -0.020283 -0.393638 -0.062387 -0.130500 0.079669 -0.188629 0.173947 -0.037315 0.052169 -0.296030 0.003048 0.172714 -0.307323 0.082039 0.392532 -0.053169 -0.019126 0.225670 0.196502 -0.002969 -0.142812 0.351027 0.361502 0.087803 -0.229591 0.123001 -0.013365 0.167974 0.202090 0.206662 0.105354 -0.153991 -0.285770 0.822451 0.247778 -0.056369 -0.206163 0.339150 -0.110845 -0.072962 0.040162 0.048659 0.124189 -0.074847 0.038384 -0.393791 0.085254 -0.226747 -0.006404 0.084567 0.127613 0.322340 0.210181 -0.354111 -0.034127 0.153340 0.158330 -0.019945 0.140778 -0.008248 0.039935 0.424414 -0.163507 -0.186264 0.189998 0.357071 -0.079294 0.290624 -0.097951 -0.204837 0.177652 0.315718 -0.011625
lives 0.234897 0.248873 0.186111 -0.457326 -0.054152 0.273628 -0.144491 -0.001283 0.281484 -0.120425 0.056208 -0.453918 -0.128003 -0.242858 -0.176712 0.139878 0.036855 0.341297 -0.187773 -0.003641 -0.127008 -0.092598 0.197587 -0.327758 0.000079 0.005108 0.004552 0.338286 -0.793914 -0.062855 -0.561851 -0.330576 -0.535376 -0.204602 0.022896 0.011208 0.143245 0.103430 -0.296782 -0.201800 -0.329956 0.552715 -0.585265 0.110669 -0.089283 -0.378359 0.333591 0.714620 -0.169875 0.196524 0.026206 -0.191804 0.072335 -0.210555 -0.271142 0.145859 0.039161 -0.045769 0.202375 -0.691252 0.312859 0.554937 -0.131701 0.116860 0.232923 0.010152 -0.110495 0.140863 -0.206662 -0.347026 -0.230747 0.450994 -0.600878 0.382609 -0.527936 -0.084382 -0.276765 -0.015732 0.386251 -0.003346 0.171189 0.201012 -0.202785 -0.007662 -0.327613 0.363359 -0.081848 0.255151 -0.629146 -0.044470 -0.356661 -0.181163 0.571108 -0.020985 0.071984 0.288720 -0.032043 0.023898 0.213210 -0.463399
